%YAML:1.0
---
opencv_ml_svm:
   format: 3
   svmType: C_SVC
   kernel:
      type: LINEAR
   C: 10.
   term_criteria: { epsilon:1.1920928955078125e-07, iterations:1000 }
   var_count: 3780
   class_count: 2
   class_labels: !!opencv-matrix
      rows: 2
      cols: 1
      dt: i
      data: [ -1, 1 ]
   sv_total: 1
   support_vectors:
      - [ 0., 0., 0., 0., 0., 0., 0., 0., 0., 0., 0., 0., 0., 0., 0., 0.,
          0., 0., 0., 0., 0., 0., 0., 0., 0., 0., 0., 0., 0., 0., 0., 0.,
          0., 0., 0., 0., 0., 0., 0., 0., 0., 0., 0., 0., 0., 0., 0., 0.,
          0., -1.62074678e-02, 0., 0., 0., 0., 0., 0., 0., 0., 0., 0.,
          0., 0., 0., 0., 0., 0., 0., -1.62074678e-02, 0., 0., 0., 0.,
          0., 0., 0., 0., -1.44472467e-02, 0., 0., 0., 0., 0., 0., 0.,
          0., -6.84314175e-03, 0., 0., 0., 0., 0., 0., 0., 0.,
          -1.44472467e-02, 0., 0., 0., 0., 0., 0., 0., 0.,
          -7.84174819e-03, 0., 0., 0., 0., 0., 0., 0., 0., 0., 0., 0.,
          0., 0., 0., 0., 0., 0., 1.62074678e-02, 0., 0., 0., 0., 0., 0.,
          0., 0., 0., 0., 0., 0., 0., 0., 0., 0., 0., 1.62074678e-02, 0.,
          0., 0., 0., 2.10250053e-03, 6.44459869e-05, 9.12660034e-04,
          4.89232480e-04, 7.84285925e-03, 1.39020721e-03, 3.84750281e-04,
          1.82691216e-03, 4.67636529e-03, 7.84285925e-03, 4.16765775e-04,
          1.66354550e-03, 1.22797745e-03, 7.84285925e-03, 2.00390094e-03,
          5.83353220e-04, 3.33155133e-03, 7.84285925e-03, 1.03725668e-03,
          1.18972224e-04, 4.09794477e-04, 5.21066017e-04, 7.84285925e-03,
          1.38121587e-03, 5.86612208e-04, 5.05298958e-04, 1.57754216e-03,
          5.05867600e-03, 6.12021715e-04, 1.08607300e-03, 1.53101364e-03,
          7.84285925e-03, 2.08667293e-03, 1.12370588e-03, 1.42587651e-03,
          7.75938900e-03, 8.32487270e-03, 4.30073880e-04, 4.93539323e-04,
          9.36767028e-04, 1.96487061e-03, 6.68615685e-04, 1.80627540e-04,
          8.95948033e-04, 8.32487270e-03, 8.32487270e-03, 7.26907863e-04,
          4.65091114e-04, 9.01159889e-04, 1.65166392e-03, 8.47315125e-04,
          3.79976758e-04, 1.08451396e-03, 8.32487270e-03, 5.24499128e-03,
          6.24967855e-04, 9.99381882e-04, 1.52973132e-03, 4.06238763e-03,
          9.60969715e-04, 3.73677904e-04, 7.17160932e-04, 7.14380154e-03,
          6.55707065e-03, 1.37472071e-03, 1.86837628e-03, 1.29618531e-03,
          2.83285789e-03, 1.40938500e-03, 6.81296748e-04, 1.03787961e-03,
          8.21678247e-03, 6.24666456e-03, 9.35025280e-04, 9.56592849e-04,
          1.34594622e-03, 1.46101252e-03, 1.14899140e-03, 7.90567021e-04,
          2.48896377e-03, 7.82224908e-03, 6.79029897e-03, 1.27878517e-03,
          1.13705394e-03, 1.16784452e-03, 1.16281735e-03, 6.87247550e-04,
          5.24954521e-04, 3.13119334e-03, 7.32676405e-03, 4.11565742e-03,
          1.33500237e-03, 1.79127778e-03, 2.78377370e-03, 2.12640432e-03,
          1.34406472e-03, 8.55921477e-04, 1.64548017e-03, 7.56985461e-03,
          6.52488368e-03, 2.01538275e-03, 2.49691331e-03, 4.31492971e-03,
          2.27934751e-03, 1.25572667e-03, 1.49330636e-03, 2.86364788e-03,
          6.66764984e-03, 5.63910371e-03, 2.47068517e-03, 9.03344539e-04,
          2.48914282e-03, 5.93180908e-03, 1.69771095e-03, 1.08103163e-03,
          2.83767702e-03, 6.36780541e-03, 2.93894438e-03, 1.93743885e-03,
          7.83368596e-04, 3.74121428e-03, 6.46040682e-03, 2.68064463e-03,
          1.72335480e-03, 1.99095858e-03, 2.38664658e-03, 5.51084289e-03,
          2.83632334e-03, 2.05946970e-03, 3.00505408e-03, 2.91468715e-03,
          2.52848980e-03, 2.71401415e-03, 4.19666665e-03, 5.69646433e-03,
          3.57646658e-03, 2.14991206e-03, 1.16501388e-03, 2.23388150e-03,
          5.23117883e-03, 4.85331472e-03, 3.09362449e-03, 4.30803373e-03,
          4.35476517e-03, 1.40640629e-03, 1.58140832e-03, 1.61761662e-03,
          4.31125471e-03, 6.83039334e-03, 2.88309017e-03, 1.86260743e-03,
          1.47321215e-03, 1.42473227e-03, 2.29374901e-03, 1.23095780e-03,
          9.08114831e-04, 1.64356735e-03, 2.08339747e-03, 2.21522711e-03,
          1.72253489e-03, 1.47294800e-03, 1.75727496e-03, 6.20147539e-03,
          3.50706489e-03, 2.23158766e-03, 2.29392014e-03, 6.21840870e-03,
          6.25769794e-03, 3.93162714e-03, 5.61216613e-03, 6.72144117e-03,
          6.76765759e-03, 3.84476455e-03, 1.43672468e-03, 9.46522749e-04,
          9.63476312e-04, 1.60155573e-03, 3.00031272e-03, 3.85186542e-03,
          4.67907405e-03, 2.92178174e-03, 2.33942713e-03, 1.26022764e-03,
          1.54823449e-03, 3.10479617e-03, 3.21460166e-03, 2.01585493e-03,
          1.94773427e-03, 1.80007331e-03, 1.61362556e-03, 1.25981856e-03,
          9.09487891e-04, 1.36628235e-03, 8.00557807e-03, 3.09732137e-03,
          2.04768917e-03, 1.86146318e-03, 1.71532354e-03, 7.68035976e-03,
          5.07463189e-03, 1.59389735e-03, 1.33229233e-03, 4.82237618e-03,
          5.79363201e-03, 4.44243848e-03, 3.64980521e-03, 4.59442148e-03,
          1.68834673e-03, 1.84410042e-03, 1.12041412e-03, 1.61998544e-03,
          7.93868769e-03, 7.58404518e-03, 3.61962826e-03, 2.02411739e-03,
          2.01980025e-03, 2.96854327e-04, 2.71921133e-04, 3.23893590e-04,
          5.29028475e-04, 1.12707252e-02, 1.13978924e-03, 6.12595817e-04,
          5.99935593e-04, 4.89422120e-04, 7.51502448e-05, 1.19632452e-04,
          1.40996402e-04, 2.42275564e-04, 1.12707252e-02, 6.49530382e-04,
          1.11262816e-04, 1.19607765e-04, 8.99120205e-05, 2.13046922e-04,
          1.72376123e-04, 2.88326613e-04, 9.48807865e-04, 1.11897271e-02,
          1.32477749e-03, 6.60768943e-04, 6.05877896e-04, 4.22217418e-04,
          6.05609093e-05, 5.98198894e-05, 1.00063109e-04, 5.52256242e-04,
          1.12148188e-02, 4.62125900e-04, 9.60809994e-05, 1.39173178e-04,
          7.12282053e-05, 0., 0., 0., 0., 1.63904205e-02, 0., 0., 0., 0.,
          0., 0., 0., 0., 0., 0., 0., 0., 0., 0., 0., 0., 0.,
          1.59373786e-02, 0., 0., 0., 0., 0., 0., 0., 0., 0., 0., 0., 0.,
          0., 0., 0., 0., 0., -1.14722485e-02, 0., 0., 0., 0., 0., 0.,
          0., 0., -1.14722485e-02, 0., 0., 0., 0., 0., 0., 0., 0.,
          -1.14722485e-02, 0., 0., 0., 0., 0., 0., 0., 0.,
          -1.14722485e-02, 0., 0., 0., 0., 0., 0., 0., 0.,
          -1.62074678e-02, 0., 0., 0., 0., 0., 0., 0., 0., 0., 0., 0.,
          0., 0., 0., 0., 0., 0., -1.62074678e-02, 0., 0., 0., 0., 0.,
          0., 0., 0., 0., 0., 0., 0., 0., 0., 0., 0., 0., 0., 0., 0., 0.,
          0., 0., 0., 0., 0., 0., 0., 0., 0., 0., 0., 0., 0., 0., 0., 0.,
          0., 0., 0., 0., 0., 0., 0., 0., 0., 0., 0., 0., 0., 0., 0., 0.,
          0., 0., 0., 0., 0., 0., 0., 0., 0., 0., 0., 0., 0., 0., 0., 0.,
          0., 0., 0., 0., 0., 0., 0., 0., 0., 0., 0., 0., 0., 0., 0., 0.,
          0., 0., 0., 0., 0., 0., 0., 0., 0., 0., 0., -1.51213790e-05,
          -5.11852959e-05, -1.61618013e-02, 0., 0., 0., 0., 0., 0., 0.,
          0., 0., 0., 0., 0., 0., 0., -6.50372647e-04, -1.37099449e-03,
          -7.67779420e-04, -1.61618013e-02, -2.68094678e-04, 0., 0., 0.,
          -3.68915207e-04, -5.70560951e-05, -1.08128253e-04,
          -1.00728495e-04, -9.91509203e-03, 0., -4.28550520e-05,
          -2.14932279e-05, -3.73088842e-04, -9.40414960e-04,
          -7.33578272e-05, -1.23907026e-04, -7.83443829e-05,
          -4.11280291e-03, 0., -2.93561199e-04, -1.41897719e-04,
          -9.49596986e-04, -2.07300554e-03, -2.16715597e-03,
          -4.01419029e-03, -1.89674692e-03, -9.91509203e-03,
          -7.72308500e-04, -6.48974383e-04, -3.59156285e-04,
          -2.10049422e-03, -9.66536533e-03, -2.17395718e-03,
          -3.84023064e-03, -1.67121924e-03, -6.97929645e-03,
          -7.24986545e-04, -4.43006214e-03, -2.29815324e-03,
          -9.32519045e-03, -1.10562111e-03, -1.88324266e-05,
          -2.58676755e-05, 0., 0., 0., -2.73520476e-04, -1.30063010e-04,
          -1.10950752e-03, -1.04918156e-03, 0., 0., 0., 2.02478506e-02,
          0., 0., 0., -1.04918156e-03, -1.09949727e-02, -3.48225760e-04,
          -5.00176509e-04, -1.27346852e-04, -1.82720047e-04,
          -1.69038089e-04, -4.19003470e-03, -2.52743997e-03,
          -1.09949727e-02, -1.09949727e-02, -2.80629203e-04,
          -1.23879770e-04, -7.92006904e-05, 1.00257136e-02,
          -4.13360744e-04, -5.11890394e-04, -3.64757865e-03,
          -1.09949727e-02, 5.70901961e-04, 3.51605442e-04,
          2.21476366e-04, 1.25310419e-03, 8.02117027e-03, 1.17264665e-03,
          1.88742147e-03, 1.59079954e-03, 1.40484073e-03, 5.28710615e-03,
          1.47169316e-03, 1.42546569e-03, 5.45090996e-03, 7.83638842e-03,
          2.47957977e-03, 3.65906185e-03, 4.56812745e-03, 6.49180310e-03,
          -8.59430898e-03, -4.38082468e-04, -6.35360251e-04,
          -2.09294623e-04, 5.11018792e-03, 4.93741245e-04,
          -1.02693075e-03, -7.38397939e-03, -8.26624688e-03,
          -5.76472748e-03, 1.20324010e-04, 3.01897380e-04,
          4.75974334e-03, 4.92437882e-03, 2.19367072e-03,
          -7.97630288e-04, -6.51942380e-03, -6.47932850e-03,
          4.13648784e-03, 1.19100115e-03, 2.75772810e-03, 4.39887540e-03,
          6.72388729e-03, 2.33478704e-03, 1.17108284e-03, 2.29189103e-03,
          5.41795604e-03, 5.79683483e-03, 2.00447906e-03, 4.11437592e-03,
          3.43089923e-03, 5.95386792e-03, 3.30762356e-03, 1.17464003e-03,
          1.57009729e-03, 5.77061251e-03, -7.83164520e-03,
          -1.21256523e-03, 1.92391593e-03, 5.16416971e-03,
          4.24002577e-03, 1.53986353e-03, -3.10598698e-04,
          -4.22580307e-03, -8.41951277e-03, -6.92347577e-03,
          -6.57159602e-04, 2.15001032e-03, 3.94034619e-03,
          4.55914345e-03, 1.04030885e-03, -1.10570756e-04,
          -3.89094371e-03, -7.68771535e-03, 3.46543174e-03,
          1.55440310e-03, 2.29074061e-03, 4.10218816e-03, 3.75228142e-03,
          2.52976036e-03, 1.89345563e-03, 2.08706199e-03, 3.54346004e-03,
          5.15908515e-03, 2.00956617e-03, 3.32950125e-03, 5.54704713e-03,
          4.21664026e-03, 3.47709679e-03, 3.99112981e-03, 4.13284311e-03,
          5.29624941e-03, -5.33745345e-03, 8.31238227e-04,
          1.30703789e-03, 3.90833803e-03, 3.69397644e-03, 1.26504560e-03,
          -1.47737016e-03, -7.02270772e-03, -6.75340556e-03,
          -4.88174288e-03, 7.88487378e-04, 2.57941056e-03,
          3.98685317e-03, 4.44888743e-03, 3.62993800e-03, 7.89587677e-04,
          -2.57111457e-03, -4.85583721e-03, 4.62323055e-03,
          1.85004727e-03, 2.06589699e-03, 2.82961968e-03, 3.39539535e-03,
          3.33592412e-03, 2.82817986e-03, 3.72836320e-03, 5.25195152e-03,
          5.23925712e-03, 2.11423705e-03, 1.95604772e-03, 1.70438562e-03,
          4.48830845e-03, 4.85564489e-03, 3.93702975e-03, 5.66488225e-03,
          5.98982163e-03, -8.06439668e-03, 2.05906719e-04,
          1.32964656e-03, 2.32985197e-03, 4.40658629e-03, 3.33403959e-03,
          1.84441486e-03, 1.43143022e-03, -7.69705512e-03,
          -6.72827894e-03, 1.32345024e-03, 1.85523380e-03,
          2.32922612e-03, 3.58134578e-03, 4.33600182e-03, 4.07093158e-03,
          4.11761412e-03, -6.42111432e-03, 5.08219097e-03,
          2.53349333e-03, 2.57640425e-03, 7.71019026e-04, 3.85276065e-03,
          5.14502544e-03, 4.16699890e-03, 5.49844746e-03, 5.66179259e-03,
          4.04825760e-03, 1.75845076e-03, 9.15729732e-04, 4.79157839e-04,
          9.84267914e-04, 1.39756093e-03, 3.14025860e-03, 4.34172293e-03,
          3.60345980e-03, -6.20903494e-03, 1.77505659e-03,
          2.81170500e-03, 1.87240052e-03, 3.56783322e-03, 4.55469312e-03,
          4.44274256e-03, 4.69060335e-03, -6.31312141e-03,
          -8.03391170e-03, 9.44529136e-04, 1.44132262e-03,
          1.68908318e-03, 1.75505527e-03, 1.69339287e-03, 3.47323040e-03,
          3.49546480e-03, -6.39419351e-03, 2.35860073e-03,
          7.94510299e-04, 5.84204681e-04, 1.14757149e-03, 2.87727010e-03,
          2.42978381e-03, 3.13349394e-03, 3.52906296e-03, 2.80324207e-03,
          7.37397117e-04, 3.69696034e-04, 5.32155042e-04, 1.29346934e-03,
          6.40917476e-03, 3.48755391e-03, 2.55998503e-03, 2.16660532e-03,
          2.13005301e-03, -7.09727965e-03, 2.10047793e-03,
          1.99640216e-03, 3.39483423e-03, 3.29236477e-03, 2.62638996e-03,
          3.69097386e-03, 4.02102480e-03, -6.28678873e-03,
          -5.04995929e-03, 4.20040218e-03, 1.63446413e-03,
          2.47181626e-03, 6.05262956e-03, 3.86423664e-03, 4.49608080e-03,
          6.03456562e-03, -4.89795487e-03, 4.56665119e-04,
          2.03613483e-04, 3.01034830e-04, 1.02945266e-03, 9.64698289e-03,
          1.07117079e-03, 1.16177276e-03, 8.75100144e-04, 1.09031075e-03,
          1.52925277e-04, 8.93933102e-05, 1.48494306e-04, 6.41033053e-04,
          9.62757412e-03, 1.67742983e-04, 1.84088625e-04, 1.40802935e-04,
          1.42181190e-04, -6.89153327e-03, 1.63079507e-03,
          1.01721892e-03, 1.21794990e-03, 9.66110360e-03, 1.99959916e-03,
          3.79417837e-03, 5.14368014e-03, -4.79491940e-03,
          -1.05037624e-02, -2.87599425e-04, 5.27126016e-04,
          6.49492606e-04, 9.56087932e-03, 4.17883275e-04, 1.93310872e-04,
          9.93299996e-04, -1.05139576e-02, 0., 0., 0., 0.,
          1.64884683e-02, 0., 0., 0., 0., 0., 0., 0., 0., 0., 0., 0., 0.,
          0., -9.97570064e-03, -4.10120003e-04, -6.54707719e-06,
          -5.20809954e-06, 1.58062335e-02, -1.23689184e-03,
          -8.02142359e-03, 0., -9.97570064e-03, -9.11488477e-03,
          -7.18806223e-06, 0., 0., 0., -1.33026415e-03, -9.97570064e-03,
          0., -8.79529584e-03, 0., 0., 0., 0., -1.14693502e-02, 0., 0.,
          0., 0., 0., 0., 0., 0., -1.14693502e-02, 0., 0., 0., 0.,
          -1.87786383e-04, 0., 0., 0., -1.14693502e-02, -3.03167180e-05,
          -4.50743944e-04, 0., -1.65134799e-04, 0., 0., 0., 0.,
          -1.14693502e-02, 0., 0., 0., 0., 0., 0., 0., 0.,
          -1.62074678e-02, 0., 0., 0., 0., 0., 0., 0., 0., 0., 0., 0.,
          0., 0., 0., 0., 0., 0., -1.62074678e-02, 0., 0., 0., 0., 0.,
          0., 0., 0., 0., 0., 0., 0., 0., 0., 0., 0., 0., 0., 0., 0., 0.,
          0., 0., 0., 0., 0., 0., 0., 0., 0., 0., 0., 0., 0., 0., 0., 0.,
          0., 0., 0., 0., 0., 0., 0., 0., 0., 0., 0., 0., 0., 0., 0., 0.,
          0., 0., 0., 0., 0., 0., 0., 0., 0., 0., 0., 0., 0., 0., 0., 0.,
          0., 0., 0., 0., 0., 0., 0., 0., 0., 0., 0., 0., 0., 0., 0., 0.,
          0., 0., 0., 0., 0., 0., 0., 0., 0., 0., -1.30537548e-03,
          -2.54414021e-03, -1.03907869e-03, -1.57521907e-02,
          -1.12085673e-03, 0., 0., 0., 0., 0., 0., 0., 0., 0., 0., 0.,
          0., 0., -1.74202258e-03, -3.13345063e-03, -2.12712656e-03,
          -1.57521907e-02, -1.14665646e-03, 0., 0., 0., -9.04134882e-04,
          -2.28472683e-03, -4.47578449e-03, -2.23927898e-03,
          -9.61859245e-03, -2.09996151e-03, -3.37102305e-04,
          -2.01168950e-04, -8.91373726e-04, -5.87325729e-03,
          -1.98369706e-03, -3.64028523e-03, -1.99117465e-03,
          -8.38478003e-03, -1.75065617e-03, -2.32764264e-03,
          -1.33828446e-03, -5.92393894e-03, -1.26322324e-04,
          -1.89660303e-03, -3.46989045e-03, -3.17392708e-03,
          -9.61859245e-03, -1.81281031e-03, -9.55352698e-06,
          -1.28458169e-05, -1.40934149e-04, -7.56972295e-04,
          -1.15560123e-03, -1.85131922e-03, -2.30613910e-03,
          -9.50876996e-03, -1.39923196e-03, -1.35343900e-04,
          -3.63587984e-04, -1.36643974e-03, -9.28716734e-03,
          -5.60452580e-04, -5.20753849e-04, -5.75885468e-04,
          -6.24221459e-04, -6.41836028e-04, -2.99438927e-03,
          -2.31428188e-03, -9.28716734e-03, -9.28716734e-03,
          -1.30467268e-03, -6.27452566e-04, -9.46520071e-04,
          8.92766844e-03, -2.26425659e-03, -1.75265339e-03,
          -4.72556660e-03, -9.28716734e-03, -1.97164924e-03,
          -5.20625268e-04, -2.35970045e-04, -1.46641373e-03,
          -2.47848057e-03, -1.42513530e-03, -9.72054084e-04,
          -1.28171011e-03, -3.30693438e-03, -2.13011727e-03,
          -1.66627613e-03, -7.49194995e-04, -3.23909358e-03,
          1.27914622e-02, -4.56714304e-03, -1.92514202e-03,
          -1.39052782e-03, -2.42873398e-03, -6.44819392e-03,
          -8.04572192e-04, 5.29695399e-06, -1.27479457e-03,
          4.14514961e-03, 2.46282616e-05, -1.45944033e-03,
          -4.66932775e-03, -6.43682899e-03, -3.97545006e-03,
          5.39962319e-04, 3.37660266e-03, 3.41797527e-03, 4.66838107e-03,
          1.64481613e-03, -1.72411173e-03, -5.48903644e-03,
          -5.44814439e-03, -2.97073158e-04, -2.50803394e-04,
          1.30893139e-03, -2.24771840e-03, 1.65781123e-03,
          -1.39466336e-03, -8.43802525e-04, -6.62255508e-04,
          -8.44425755e-04, -2.54311529e-03, 1.63680152e-03,
          4.84360149e-03, 1.70012983e-03, 1.85823150e-03,
          -1.10595673e-03, -9.23260406e-04, -1.54720969e-03,
          -2.40794802e-03, -3.88571853e-03, 6.65545740e-05,
          3.14438832e-03, 3.97729455e-03, 5.00438781e-03, 1.36778271e-03,
          -6.36792509e-04, -3.82821797e-03, -5.01025934e-03,
          -2.79603549e-03, 5.49738877e-04, 2.17979611e-03,
          4.66940273e-03, 4.08954406e-03, 1.45846186e-03,
          -2.34335559e-04, -2.96472898e-03, -3.86845274e-03,
          -4.25249524e-03, 6.66975975e-04, 2.57050968e-03,
          2.13860348e-03, -1.10086075e-04, -6.65197294e-05,
          -3.09502502e-04, -1.85301853e-03, -5.29501168e-03,
          -9.19016544e-04, 1.77170464e-03, 1.14021939e-03,
          2.67549511e-03, -2.24402538e-04, 1.40191347e-03,
          -3.90597561e-04, -2.72553734e-04, -3.81555688e-03,
          -2.25617760e-03, 1.10481586e-03, 1.75574189e-03,
          3.68599780e-03, 3.25752329e-03, 1.58255431e-03,
          -1.81105279e-03, -3.83411301e-03, -3.33957491e-03,
          -1.97026273e-03, 6.14256132e-04, 3.04311165e-03,
          3.59407254e-03, 4.44939779e-03, 3.51311313e-03,
          -2.00813782e-04, -1.48007530e-03, -2.73318822e-03,
          1.67651684e-04, 4.60010837e-04, 1.02018658e-03, 7.07308413e-04,
          2.16005152e-04, 8.84762965e-04, -2.62041087e-03,
          -7.83599215e-04, -1.69763516e-03, -2.69403844e-03,
          -3.21255997e-04, 2.32695020e-03, 5.45941351e-04,
          3.21618910e-03, 2.72064353e-03, -1.53381040e-03,
          -9.32438474e-04, -2.47877161e-03, -4.90231253e-03,
          4.52367472e-04, 2.04953435e-03, 3.37312743e-03, 5.41001325e-03,
          3.90625093e-03, 1.50178769e-03, 1.15559762e-03,
          -4.46117762e-03, -4.74832626e-03, 1.26652094e-03,
          2.08967784e-03, 3.75204370e-03, 4.25687013e-03, 4.02487256e-03,
          3.72775085e-03, 2.48357793e-03, -4.92337765e-03,
          -5.38155762e-03, 6.45135355e-04, 2.62662466e-03,
          2.70995568e-03, 5.08526480e-03, 2.54508341e-03, 4.43318946e-04,
          -3.24087916e-04, -1.92163605e-03, -6.28736569e-03,
          1.34621875e-03, 2.54830346e-03, 4.23219195e-03, 4.10812860e-03,
          2.54965015e-03, 1.02384470e-03, -2.87484872e-04,
          -5.73509000e-03, -4.55411850e-03, 1.36427861e-03,
          2.20384100e-03, 2.85708834e-03, 3.39197437e-03, 3.56526207e-03,
          3.84784746e-03, 3.55658308e-03, -4.27671010e-03,
          -4.24674153e-03, 1.78985717e-03, 2.46937620e-03,
          2.75490549e-03, 3.07127205e-03, 2.48285662e-03, 3.43765179e-03,
          2.72323005e-03, -3.15265637e-03, -5.90427266e-03,
          1.49830279e-03, 2.58174958e-03, 3.62626091e-03, 3.70159023e-03,
          3.12448386e-03, 2.17009126e-03, 1.47834094e-03,
          -5.64058358e-03, -3.98412300e-03, 2.18433491e-03,
          3.30357114e-03, 3.57948663e-03, 5.74177038e-03, 4.12572781e-03,
          4.78179706e-03, 1.80507009e-03, -4.87254234e-03,
          -4.76479018e-03, 2.28971359e-03, 1.73970207e-03,
          2.04973714e-03, 1.95969921e-03, 1.55175186e-03, 2.05990160e-03,
          4.63584583e-04, -5.42494515e-03, -2.31564394e-03,
          3.95495119e-03, 1.79590902e-03, 1.89538940e-03, 3.45523749e-03,
          2.36927951e-03, 3.48590151e-03, 3.72368749e-03,
          -2.88404198e-03, -3.09301401e-03, 2.08343728e-03,
          2.39175186e-03, 2.78813438e-03, 4.22262447e-03, 2.81038834e-03,
          3.49426456e-03, 8.99914128e-04, -6.06050948e-03,
          -4.26058890e-03, 3.03234439e-03, 4.12115362e-03,
          3.74916382e-03, 3.15220444e-03, 3.03603709e-03, 3.32055520e-03,
          2.85276328e-03, -4.67918767e-03, -2.68484792e-03,
          1.46307366e-03, 1.15820346e-03, 1.10170990e-03, 7.33948033e-03,
          2.41732039e-03, 3.44808050e-03, 3.76307871e-03,
          -2.92266579e-03, -6.59144716e-03, -1.05341780e-03,
          2.72740115e-04, -3.16942169e-04, 7.12775858e-03,
          4.27736086e-04, -4.85329540e-04, 2.32579550e-04,
          -6.78009819e-03, -4.57336009e-03, 6.83951541e-04,
          3.40633281e-03, 2.19079503e-03, 6.66763075e-03, 3.30753694e-03,
          2.18219287e-03, 1.69928465e-03, -3.39201209e-03,
          -6.48773508e-03, -2.55281641e-03, -4.00999561e-04,
          -1.90061226e-03, 5.99606847e-03, 1.67446589e-04,
          -9.80072189e-04, -1.19458628e-03, -5.62769594e-03,
          -6.60317950e-03, -1.03302323e-03, -1.11785805e-04,
          -9.26833134e-04, 1.45779410e-02, -9.99542070e-04,
          -6.26020227e-03, -5.64198359e-04, -6.60317950e-03,
          -5.73796174e-03, -2.68398202e-04, -8.38094929e-05,
          -3.00076266e-04, -1.00287539e-03, -1.81685388e-03,
          -6.60317950e-03, -2.18228600e-03, -5.56194177e-03,
          -6.60317950e-03, -2.48572370e-03, -1.01498456e-03,
          -3.35049490e-03, 1.49676828e-02, -1.52969395e-03,
          -4.56896331e-03, -1.33433356e-03, -6.17861515e-03,
          -3.79484682e-03, -7.84066913e-04, -8.62658198e-04,
          -1.86741760e-03, -4.72591957e-03, -4.75079287e-03,
          -6.60317950e-03, -5.52811334e-03, -3.59925488e-03,
          -6.07203285e-04, -9.55862379e-06, -3.83335391e-05,
          -3.02291555e-05, -1.03862435e-02, -7.54165463e-04,
          -3.24492157e-03, -1.22144853e-03, -7.69926584e-04, 0., 0.,
          -2.27004261e-06, -1.80617656e-06, -1.03862435e-02,
          -5.88129187e-05, -6.80562080e-05, -5.98075057e-05, 0.,
          -4.50187625e-04, -3.25118381e-05, -5.28098259e-04,
          -9.26110486e-04, -1.03862435e-02, -3.23877274e-03,
          -7.09338672e-03, -4.26710211e-03, -7.04694190e-04, 0., 0.,
          -3.40506376e-05, -1.30219865e-04, -1.03862435e-02,
          -2.97677470e-04, -6.54151256e-04, -5.01522387e-04, 0., 0., 0.,
          0., 0., -1.62074678e-02, 0., 0., 0., 0., 0., 0., 0., 0., 0.,
          0., 0., 0., 0., 0., 0., 0., 0., -1.62074678e-02, 0., 0., 0.,
          0., 0., 0., 0., 0., 0., 0., 0., 0., 0., 0., 0., 0., 0., 0., 0.,
          0., 0., 0., 0., 0., 0., 0., 0., 0., 0., 0., 0., 0., 0., 0., 0.,
          0., 0., 0., 0., 0., 0., 0., 0., 0., 0., 0., 0., 0., 0., 0., 0.,
          0., 0., 0., 0., 0., 0., 0., 0., 0., 0., 0., 0., 0., 0., 0., 0.,
          0., 0., 0., 0., 0., 0., 0., 0., 0., 0., 0., 0., 0., 0., 0., 0.,
          0., 0., 0., 0., 0., 0., 0., 0., 0., 0., 0., 0.,
          -5.42665366e-04, -1.08369754e-03, -1.87708403e-03,
          -1.59249026e-02, -9.59898287e-04, 0., 0., 0., 0., 0., 0., 0.,
          0., 0., 0., 0., 0., 0., 0., 0., -8.29819415e-04,
          -1.59249026e-02, -1.98322162e-03, -1.86755823e-03,
          -2.04950012e-03, 0., -5.96876598e-05, -6.41477702e-04,
          -1.27200631e-03, -2.75858655e-03, -1.08774751e-02,
          -1.44627690e-03, -6.69881629e-05, -1.61667758e-05,
          -9.21085448e-05, -4.01680358e-04, -4.69749415e-04,
          -6.82739599e-04, -1.86955021e-03, -1.08774751e-02,
          -1.05311035e-03, -2.84376205e-04, -3.06615810e-04,
          -6.98042801e-04, -1.75316833e-04, -3.12259654e-05,
          -1.76682261e-05, -1.12306897e-03, -1.08774751e-02,
          -3.07807256e-03, -2.29549431e-03, -2.53342558e-03,
          -2.11016086e-04, -1.47177395e-03, -4.01641504e-04,
          -2.00656912e-04, -7.12345238e-04, -1.08774751e-02,
          -2.14590109e-03, -1.35878741e-03, -1.56252400e-03,
          -1.08554284e-03, -1.26584491e-03, -5.67260140e-04,
          -2.81950051e-04, -2.65493779e-03, -7.32967909e-03,
          -2.93616694e-03, -8.54129437e-04, -1.29530602e-03,
          -2.09591095e-03, -1.40377495e-03, -1.28818420e-03,
          -4.98115493e-04, -6.33079465e-03, 8.16138368e-03,
          -6.90097222e-03, -8.26013449e-04, -8.90184136e-04,
          -1.19190360e-03, -4.49764356e-03, -1.46243814e-03,
          -1.57172966e-03, -2.63039232e-03, -7.06539908e-03,
          -3.91730806e-03, -7.36773945e-04, -9.32245981e-04,
          -3.40685318e-03, -1.53608166e-03, -1.36674684e-03,
          -3.19944206e-03, -7.24264979e-03, 8.17619264e-03,
          -6.69614272e-03, -1.35847845e-03, -5.51100879e-04,
          -1.41621719e-03, 1.76302929e-04, -5.39572902e-05,
          1.51727127e-03, -2.25051329e-03, 1.99267804e-03,
          -1.98999420e-03, -3.65416316e-04, -4.63054079e-04,
          6.90964982e-04, -3.79226683e-03, -3.16238438e-04,
          2.49196170e-03, -1.18433347e-03, 1.99267804e-03,
          -9.62027290e-04, 7.33500856e-05, -1.38637226e-03,
          -1.37582759e-03, 1.33503287e-04, -5.74071251e-04,
          -7.30712782e-04, -2.30536191e-03, 1.99267804e-03,
          -2.55432143e-03, -1.39483798e-03, -1.85703987e-03,
          9.57528653e-04, -1.48810202e-03, -1.36788818e-03,
          -1.48499571e-03, -4.16692486e-03, 1.99267804e-03,
          -1.90320087e-03, -1.32644619e-03, -3.09156626e-03,
          5.71026932e-04, -3.90032842e-03, -6.71337242e-04,
          4.46100836e-04, 8.96835001e-04, 5.32562379e-04, 7.13222486e-04,
          2.42473747e-04, -5.69141645e-04, -3.09147965e-03,
          7.80964445e-04, 1.69828825e-03, 2.05127959e-04, 4.06642706e-04,
          -1.47799918e-04, 2.22343160e-03, 7.09200685e-04,
          2.43526441e-03, 1.73634291e-03, -2.23177136e-03,
          -1.58925203e-03, -1.23506482e-03, -2.07138876e-03,
          -5.35351282e-04, -4.99810383e-04, -8.62274494e-04,
          -1.56779238e-03, -1.94564625e-03, -2.39543570e-03,
          -6.87605119e-04, -1.45072141e-03, 3.63755767e-04,
          -3.08213894e-05, 1.14828243e-03, -2.57498905e-04,
          7.92295832e-05, -2.04017526e-03, 1.47679599e-03,
          6.04368746e-04, 5.61152701e-05, -1.38354325e-03,
          -1.06962561e-03, -1.05284166e-03, 1.18246375e-04,
          1.76288781e-03, 2.68751266e-03, 8.88974406e-04, 1.62194483e-05,
          1.01627258e-03, -2.25193915e-04, 8.87005706e-04,
          1.05803984e-03, 3.58961443e-05, 1.26442965e-03, 1.36027066e-03,
          -2.51338235e-03, -2.15533352e-03, -4.36127512e-03,
          -3.01028579e-03, -1.69589778e-03, -3.85338441e-04,
          1.30770507e-03, -6.10519259e-04, -3.13458149e-04,
          7.54324894e-04, -6.31483679e-04, -3.40510742e-03,
          -8.70956865e-04, -1.35368167e-03, 1.71698208e-04,
          1.92345073e-03, 1.58282742e-03, 1.93902839e-03,
          -1.02112675e-03, 4.28286614e-04, 1.76999834e-03,
          1.52064150e-03, 3.12827807e-03, 1.72339461e-03,
          -1.08925626e-03, -2.08638236e-03, -1.50408864e-03,
          -2.40523182e-03, 1.51965255e-03, 1.97696243e-03,
          3.50524602e-03, -5.14411877e-05, 4.98510199e-04,
          -1.41810067e-03, -3.09972279e-03, -3.37495562e-03,
          -1.33143156e-04, -3.65826330e-04, -2.73635058e-04,
          1.67308503e-03, 1.06595799e-04, 1.25511608e-03,
          -5.33871062e-04, -5.13747975e-04, -4.57786431e-04,
          -2.12586252e-03, 6.36008219e-04, 1.66467822e-03,
          1.92993274e-03, -1.07732241e-03, 6.07371505e-04,
          -1.41714525e-03, -1.12890860e-03, -2.24718708e-03,
          -2.15372792e-03, 1.53173716e-03, 2.32721795e-03,
          1.93211215e-03, -1.41441030e-03, -5.31825004e-04,
          -7.57576141e-04, -2.24273535e-03, -3.75921209e-03,
          -7.04256454e-05, 1.50022865e-03, 2.62828032e-03,
          2.89870915e-03, 4.21661232e-03, 3.00803664e-03, 3.25160869e-03,
          1.98753769e-04, -2.80383951e-03, -3.24723008e-03,
          4.92916268e-04, 1.89137063e-03, -1.12482630e-04,
          -3.04027670e-03, -1.98271638e-03, -4.08055581e-04,
          -1.33299676e-03, -3.31575423e-03, -2.01326446e-03,
          -1.07912265e-03, 7.64116528e-04, 2.79247854e-03,
          1.59350934e-03, 1.30156288e-03, 3.02154641e-03, 2.77013314e-04,
          -2.04307050e-03, -4.96290112e-03, -3.28912574e-04,
          1.33803533e-03, 1.57444261e-03, 2.61846394e-03, 1.59112131e-03,
          2.79606762e-03, -1.16457479e-04, -5.60585875e-03,
          -5.62663237e-03, -1.23651675e-03, 3.87894083e-03,
          2.65409704e-03, 2.32531573e-03, 2.02220003e-03, 3.49451718e-03,
          2.47120461e-03, -4.59317258e-03, -5.39551117e-03,
          -2.10618461e-03, -7.58584880e-04, 7.86697958e-04,
          1.64686120e-03, 2.43151304e-03, 3.84764886e-03, 8.82953347e-04,
          -4.20157611e-03, -5.03491005e-03, -1.26298144e-03,
          2.66998517e-03, 2.46372004e-03, 4.76273755e-03, 3.73260211e-03,
          4.39541787e-03, 4.03152267e-03, -2.07734015e-03,
          -4.77617467e-03, -1.64930546e-03, 3.87036637e-03,
          1.56613719e-03, 6.68854266e-03, 2.43951590e-03, 1.23137131e-03,
          1.43383874e-03, -3.38355312e-03, -3.52432788e-03,
          -3.58730182e-03, -1.82998495e-03, -4.86198533e-03,
          1.81395747e-03, -4.58634971e-03, -2.38149171e-03,
          -2.30288343e-03, -2.87495903e-03, -3.51346144e-03,
          -3.97996511e-04, 3.03946948e-03, 3.11584445e-03,
          6.58828672e-03, 3.67591134e-03, 2.57861638e-03, 2.20228592e-03,
          -1.19239825e-03, -3.38854617e-03, -1.54623913e-03,
          -3.03189270e-03, -3.03723174e-03, 1.54917652e-03,
          -4.11723414e-03, -1.58362812e-03, -3.45273037e-03,
          -2.82660965e-03, -1.41462265e-03, -1.65298523e-03,
          -1.41689670e-03, -3.99449980e-03, 1.08340541e-02,
          -4.02797386e-03, -1.13427360e-03, -1.06661161e-03,
          -1.33452099e-03, -9.99819138e-04, -7.97526736e-04,
          -1.18431472e-03, -4.56061447e-03, -6.82485849e-03,
          -6.18675305e-03, -5.34659112e-03, -3.78013286e-03,
          -9.12743853e-04, -3.12696304e-03, -1.30128674e-03,
          -2.39791814e-03, -2.61578639e-03, 1.03398571e-02,
          -3.96027975e-03, -8.97895254e-04, -1.64530496e-03,
          -2.20865360e-03, -3.68182734e-03, -6.82485849e-03,
          -6.82485849e-03, -6.51383493e-03, -6.82485849e-03,
          -4.10302123e-03, -3.03913653e-03, -9.78390104e-04,
          -1.82482565e-03, -4.92335821e-05, -1.07552652e-04,
          -3.53278738e-04, -1.73317723e-03, -1.08498521e-02,
          -2.20902544e-03, -2.57704942e-03, -1.66085782e-03,
          -8.09592457e-05, 0., -1.83164848e-05, -2.94261390e-05,
          -2.59836233e-04, -1.08498521e-02, -2.66065268e-04,
          -4.17985546e-04, -2.72527337e-04, 0., -3.62772436e-04,
          -3.72868404e-03, -3.44820647e-03, -2.39543011e-03,
          -1.08498521e-02, -1.84485456e-03, -1.42547977e-03,
          -1.12847491e-04, -8.43524540e-05, 0., -6.58865960e-04,
          -3.71990929e-04, -1.95667468e-04, -1.08498521e-02,
          -3.64562264e-04, -1.90915365e-04, -6.90026673e-06, 0., 0., 0.,
          0., 0., -1.62074678e-02, 0., 0., 0., 0., 0., 0., 0., 0., 0.,
          0., 0., 0., 0., 0., 0., 0., 0., -1.62074678e-02, 0., 0., 0.,
          0., 0., 0., 0., 0., 0., 0., 0., 0., 0., 0., 0., 0., 0., 0., 0.,
          0., 0., 0., 0., 0., 0., 0., 0., 0., 0., 0., 0., 0., 0., 0., 0.,
          0., 0., 0., 0., 0., 0., 0., 0., 0., 0., 0., 0., 0., 0., 0., 0.,
          0., 0., 0., 0., 0., 0., 0., 0., 0., 0., 0., 0., 0., 0., 0., 0.,
          0., 0., 0., 0., 0., 0., 0., 0., 0., 0., 0., 0., 0., 0., 0., 0.,
          0., 0., 0., 0., 0., 0., 0., 0., 0., 0., 0., 0., 0., 0.,
          -1.02048006e-03, -1.59080382e-02, -6.75094954e-04,
          -2.32399884e-03, -2.47608218e-03, 0., 0., 0., 0., 0., 0., 0.,
          0., 0., 0., 0., 0., 0., -9.14772449e-04, -1.59080382e-02, 0.,
          -1.71843288e-03, -1.57555600e-03, 0., -3.73526564e-04,
          -1.14568575e-05, -5.04341779e-06, -1.53658155e-03,
          -9.01013613e-03, -1.12866273e-03, -2.93330732e-03,
          -2.86060013e-03, -4.97599947e-04, -2.50350963e-03,
          -1.72758999e-04, -5.88928015e-05, -1.19622541e-03,
          -7.74503499e-03, -9.52321454e-04, -2.00600806e-03,
          -1.87542220e-03, -2.77821138e-03, -1.94800715e-03,
          -3.36846483e-06, -3.72065614e-08, -1.43196201e-03,
          -9.01013613e-03, -4.49001644e-04, -3.94014549e-03,
          -2.59505003e-03, -2.02219537e-03, -9.01013613e-03,
          -6.88760774e-05, -5.58098463e-07, -1.14920188e-03,
          -6.68481970e-03, -5.97782549e-04, -3.74411722e-03,
          -2.19273288e-03, -9.01013613e-03, -4.57001291e-03,
          -5.12277766e-04, -9.74397291e-04, -6.25224435e-04,
          -8.79507163e-04, -1.15958613e-03, -5.47891192e-04,
          -3.01738357e-04, -5.32856211e-03, -3.56266950e-03,
          -8.63032124e-04, -3.26497504e-03, -1.87435490e-03,
          1.20112002e-02, -2.05813977e-03, -1.90847320e-03,
          -4.98657173e-04, -5.33521967e-03, -8.87997169e-03,
          -3.57730780e-04, -1.67673337e-03, -7.11458037e-04,
          -2.26044373e-04, -5.13806124e-04, -8.98551603e-04,
          -2.39646703e-04, -8.87997169e-03, -8.87997169e-03,
          -7.84012780e-04, -6.85203914e-03, -2.73860176e-03,
          1.60962809e-02, -1.52763142e-03, -4.43260977e-03,
          -9.77865770e-04, -8.87997169e-03, -1.53734314e-03,
          -7.32985151e-04, -2.22854945e-03, -1.18567108e-03,
          6.51592109e-03, -6.29995600e-04, -1.29469170e-03,
          -2.23381817e-03, -2.66260281e-03, -5.65261405e-04,
          -1.47380307e-03, -1.89159194e-03, -2.08485802e-03,
          3.72015848e-03, -2.44111594e-04, -2.30036385e-04,
          -2.28721392e-03, -1.35992421e-03, -4.74718912e-03,
          -7.51228887e-04, -5.68919955e-03, -2.62081670e-03,
          6.52629510e-03, 7.96626380e-04, -1.61105010e-03,
          -2.63802544e-03, -5.31781837e-03, -7.88632169e-05,
          -4.00906894e-03, -4.97671217e-03, -3.43635818e-03,
          4.20922460e-03, 1.22112979e-03, -7.77272624e-04,
          -2.15730141e-03, -1.68353308e-03, -2.97786784e-03,
          -2.99570587e-04, -3.53996351e-04, 1.04625215e-04,
          4.32467845e-04, 5.61076566e-04, 5.69249154e-04,
          -5.86333743e-04, -3.45775974e-03, -4.16480051e-03,
          -2.88297277e-04, -3.31308547e-04, 1.99979614e-03,
          1.81739498e-03, 1.57603680e-03, 1.07703684e-03,
          -2.01671966e-04, -3.76790436e-03, -6.95241266e-04,
          -1.87167490e-03, -3.22109438e-03, -2.71847704e-04,
          1.09174335e-03, 1.15869229e-03, 8.91593460e-04, 1.14615494e-03,
          -1.06231601e-03, -6.62776234e-04, 1.43431663e-03,
          -2.78433581e-05, 2.46711005e-03, 3.80994310e-03,
          2.19875504e-03, 2.14302051e-03, 2.71638623e-03,
          -9.73984192e-04, -5.04193129e-03, -3.03704268e-03,
          -2.12293118e-03, -8.97098333e-04, -1.97003304e-04,
          6.49916008e-04, 1.66602572e-03, 1.08395230e-04,
          -3.83041892e-03, -4.66063386e-03, -8.63330497e-04,
          -3.22681881e-04, 7.78947142e-04, 1.52304291e-03,
          1.00763957e-03, 2.99551222e-03, 1.49906240e-03,
          -2.50558578e-03, -1.52435584e-03, -8.92188633e-04,
          8.94067285e-04, 1.78477727e-03, 3.31965392e-03, 1.38314290e-03,
          1.97343971e-03, 3.16325016e-03, -1.88191899e-03,
          -1.00357179e-03, 1.78021321e-03, 3.56995128e-03,
          3.22878826e-03, 4.19375720e-03, 1.54391502e-03, 2.76916428e-03,
          3.28406971e-03, -9.16496268e-04, -3.71790002e-03,
          2.51507969e-04, 1.09860825e-03, 2.61088577e-03, 3.40611022e-03,
          2.46671191e-03, 1.74716802e-03, 3.37838399e-04,
          -4.37615346e-03, -4.15612618e-03, -2.03825242e-04,
          1.52075267e-03, 1.98862213e-03, 2.75361654e-03, 1.08384632e-03,
          4.13741800e-04, -4.09413360e-06, -4.38795378e-03,
          -3.25845880e-03, 2.45833909e-03, 3.10208648e-03,
          4.01489949e-03, 5.16418740e-03, 2.98953848e-03, 2.85437959e-03,
          9.18810605e-04, -3.54384165e-03, -3.89211299e-03,
          9.28033900e-04, 2.84679118e-03, 8.49309668e-04, 2.24943436e-03,
          -2.22811778e-03, 1.85036764e-03, 1.01022096e-03,
          -4.32551932e-03, -4.56195604e-03, -7.43102049e-04,
          8.51419580e-04, 5.16056258e-04, 6.35700999e-04, 4.47692990e-04,
          7.97474815e-04, 1.16174284e-03, -4.51070163e-03,
          -3.59198800e-03, 3.61582679e-05, 1.63259439e-03,
          2.26665381e-03, 3.48420977e-03, 2.36210297e-03, 2.92722299e-03,
          2.48693861e-03, -3.36984196e-03, -3.45900212e-03,
          -3.45647859e-04, 2.29781540e-03, -5.89039060e-04,
          -7.28978193e-04, -3.00423795e-04, 1.67496002e-03,
          2.45901220e-03, -3.70292785e-03, -2.72240303e-03,
          1.93218456e-03, 2.92995875e-03, 2.35568895e-03, 3.33916070e-03,
          3.27022397e-03, 2.99285003e-03, 5.29716816e-03,
          -2.28477642e-03, -6.45153131e-03, 4.59927578e-05,
          9.73869930e-04, 1.31678151e-03, 3.03463545e-03, 2.85207387e-03,
          3.23675154e-03, 3.16005433e-03, -5.11954585e-03,
          -5.14991162e-03, 7.60246301e-04, 2.05528038e-03,
          2.79388065e-03, 4.58437949e-03, 4.01669927e-03, 4.83189896e-03,
          5.38456067e-03, -2.35275854e-03, -5.52022411e-03,
          6.77208940e-04, 1.05519046e-03, 1.24494266e-03, 2.66962708e-03,
          1.81053928e-03, 2.35795020e-03, 3.95031180e-03,
          -3.71707557e-03, -3.74730024e-03, 8.13918014e-04,
          2.04919698e-03, 2.13362114e-03, 5.06965863e-03, 2.89802928e-03,
          4.92917700e-03, 5.34932828e-03, -1.43033837e-03,
          -4.73780883e-03, 7.28757645e-04, 2.56038969e-03,
          4.35082242e-03, 7.31226755e-03, 3.11056175e-03, 3.85203050e-03,
          3.44214961e-03, -2.67740199e-03, -7.21539231e-03,
          -3.34427832e-03, -6.52232557e-04, 1.18736958e-03,
          6.62396941e-03, 4.46465856e-04, 2.29160301e-04,
          -1.39542494e-03, -7.09846243e-03, -3.76087986e-03,
          5.14796760e-04, 1.41505059e-03, 2.50924728e-03, 7.99759012e-03,
          2.22564605e-03, 3.67693487e-03, 4.74896049e-03,
          -1.69608113e-03, -6.79911068e-03, -3.77185107e-03,
          -7.28738785e-04, 1.12976797e-03, 7.96365645e-03,
          7.80432601e-04, 7.28848274e-04, 6.23618369e-04,
          -6.04831334e-03, -6.38717832e-03, -5.34797506e-03,
          -3.07523948e-03, -6.30441122e-04, 1.39102833e-02,
          -6.75441406e-04, -4.92067367e-04, -1.70835038e-03,
          -6.38717832e-03, -6.38717832e-03, -6.38717832e-03,
          -6.38717832e-03, -1.82247837e-03, -3.63263325e-03,
          -8.90378549e-04, -1.66173908e-03, -1.02844031e-03,
          -5.10425214e-03, -6.38717832e-03, -5.67499502e-03,
          -2.33117701e-03, -3.34653996e-05, 1.69283524e-02,
          -2.42503866e-05, -1.27904612e-04, -6.46535074e-04,
          -6.38717832e-03, -6.36299327e-03, -4.48267022e-03,
          -5.52720530e-03, -3.12728080e-05, -3.57780635e-04,
          -2.69782104e-05, -1.93099360e-04, -4.12515510e-04,
          -4.69713705e-03, -1.41481741e-03, -5.52170677e-03,
          -6.76482264e-03, -1.14852958e-03, -1.04231201e-02,
          -7.45469588e-04, -1.23829918e-03, -2.31809390e-04,
          -5.09978854e-04, 0., -7.12883309e-04, -4.49049548e-04,
          -5.34145474e-05, -1.04231201e-02, -1.29883061e-04,
          -1.16135743e-04, 0., 0., -1.06055697e-03, -1.48530875e-03,
          -2.40429258e-03, -1.42742401e-05, -1.04231201e-02,
          -1.68933111e-05, -9.31816976e-05, -1.03224476e-04,
          -5.14429703e-04, 0., -6.88206419e-05, -7.23205667e-05, 0.,
          -1.04231201e-02, -1.12622081e-06, -4.17357933e-06, 0., 0., 0.,
          0., 0., 0., -1.62074678e-02, 0., 0., 0., 0., 0., 0., 0., 0.,
          0., 0., 0., 0., 0., 0., 0., 0., 0., -1.62074678e-02, 0., 0.,
          0., 0., 0., 0., 0., 0., 0., 0., 0., 0., 0., 0., 0., 0., 0., 0.,
          0., 0., 0., 0., 0., 0., 0., 0., 0., 0., 0., 0., 0., 0., 0., 0.,
          0., 0., 0., 0., 0., 0., 0., 0., 0., 0., 0., 0., 0., 0., 0., 0.,
          0., 0., 0., 0., 0., 0., 0., 0., 0., 0., 0., 0., 0., 0., 0., 0.,
          0., 0., 0., 0., 0., 0., 0., 0., 0., 0., 0., 0., 0., 0., 0., 0.,
          0., 0., 0., 0., 0., 0., 0., 0., 0., 0., 0., 0., 0., 0., 0.,
          -9.43607738e-05, -1.62012130e-02, 0., -4.65111341e-04,
          -4.26098704e-04, 0., 0., 0., 0., 0., 0., 0., 0., 0., 0., 0.,
          0., 0., 0., -1.62012130e-02, 0., 0., 0., 0., -1.78148504e-03,
          -3.40428869e-07, 0., -2.42017602e-04, -1.19158737e-02,
          -1.58303752e-04, -2.07723817e-03, -1.24541076e-03,
          -1.78536528e-03, -8.04738235e-03, -9.39789970e-06, 0.,
          -1.96755107e-04, -5.97913144e-03, -2.03533375e-04,
          -2.07250658e-03, -1.07988168e-03, -9.23602749e-03, 0., 0., 0.,
          0., -1.19158737e-02, 0., 0., 0., 0., 0., 0., 0., 0.,
          -6.22134004e-03, 0., 0., 0., 0., -1.07915672e-02,
          -1.60259195e-04, -1.45171222e-03, -5.35021245e-04,
          -4.06057588e-05, -1.51011438e-04, -6.59838319e-04,
          -1.23798818e-04, -1.07915672e-02, -1.07915672e-02,
          -3.53102369e-04, -6.06992701e-03, -2.28528352e-03,
          1.61254499e-02, -9.56923177e-04, -3.78791848e-03,
          -6.44790474e-04, -1.07915672e-02, 0., 0., 0., 0., 0., 0., 0.,
          0., 0., 0., 0., 0., 0., 1.60024259e-02, 0., 0., 0., 0.,
          -6.56585814e-03, -8.09877354e-04, -6.20589219e-03,
          -2.27079261e-03, 6.32264279e-03, -5.45994881e-05,
          -2.11021607e-03, -1.99643243e-03, -7.03032268e-03,
          -2.29041209e-03, -5.27642574e-03, -6.23523025e-03,
          -4.31211013e-03, 3.46458284e-03, -1.59803691e-04,
          -1.83885894e-03, -1.84186455e-03, -2.97699939e-03,
          3.77457967e-04, 2.62745016e-04, 1.44130609e-04, 1.45124085e-03,
          9.68503859e-03, 3.26145208e-04, 2.90788448e-04, 3.62803432e-04,
          3.13060824e-04, 1.78482744e-03, 1.45110476e-03, 7.17539864e-04,
          2.54784641e-03, 9.75128263e-03, 9.23029671e-04, 1.06944190e-03,
          1.16350094e-03, 1.77691970e-03, -3.67424986e-03,
          -5.23700565e-03, -8.24213028e-03, -3.38921347e-03,
          -2.28985809e-04, 3.65016807e-04, -1.78086467e-03,
          1.85489800e-04, -3.77898128e-03, -4.15675575e-03,
          1.60266075e-03, -1.05532655e-03, 2.55776849e-03,
          6.68529468e-03, 2.74318410e-03, 1.81340019e-03, 3.37083777e-03,
          -3.21212714e-03, 1.63139577e-03, 1.61404838e-03,
          1.33746455e-03, 2.02004635e-03, 4.35408950e-03, 1.83023512e-03,
          1.78321544e-03, 1.70787633e-03, 1.68005552e-03, 2.12481804e-03,
          1.89067272e-03, 1.50056405e-03, 2.72967736e-03, 7.31029315e-03,
          5.48255211e-03, 2.38008262e-03, 2.45626690e-03, 2.34084623e-03,
          -7.51003204e-03, -2.04955088e-03, 1.01288687e-03,
          1.74744858e-03, 4.09147702e-03, 1.50408188e-03, 1.41580333e-03,
          3.43519426e-03, -7.01942109e-03, -5.44304680e-03,
          -9.91755587e-06, 1.90447096e-03, 1.74103340e-03,
          2.73779524e-03, 1.59871625e-03, 2.17662076e-03, 4.65300540e-03,
          -5.26955305e-03, 2.79333675e-03, 1.85830274e-03,
          1.23361789e-03, 1.37149135e-03, 4.15860023e-03, 3.65247321e-03,
          2.75730621e-03, 2.46614101e-03, 2.29203701e-03, 5.42775914e-03,
          3.27870948e-03, 1.92578603e-03, 2.21122894e-03, 4.03531082e-03,
          3.62247438e-03, 4.04669903e-03, 4.94249724e-03, 5.89941442e-03,
          -5.61889959e-03, 2.73441919e-03, 2.01934925e-03,
          1.77467905e-03, 3.06712277e-03, 2.01865193e-03, 3.12136812e-03,
          2.00905604e-03, -5.64078754e-03, -7.19981594e-03,
          9.66186868e-04, 1.32023636e-03, -2.94131413e-03,
          -2.24496750e-03, -4.76752548e-03, 2.33646948e-03,
          1.05657836e-03, -7.43109081e-03, 5.45909721e-03,
          3.48760607e-03, 1.68054178e-03, 2.00840924e-03, 3.07855872e-03,
          4.02708678e-03, 4.26856615e-03, 3.89479054e-03, 5.49407024e-03,
          4.29825811e-03, 3.39848851e-03, 2.84371292e-03, 1.49029447e-03,
          3.52238142e-03, 4.15331777e-03, 4.39946214e-03, 2.95886397e-03,
          4.57264110e-03, -6.49203034e-03, -1.15023099e-03,
          7.77573616e-04, -3.84327467e-03, -4.82728425e-03,
          -2.81138206e-03, 1.95233349e-03, 1.75405701e-03,
          -6.86935941e-03, -5.70256403e-03, 1.67389621e-03,
          2.04136665e-03, 1.23426132e-03, 2.47844099e-03, 3.49624688e-03,
          2.74354219e-03, 3.27129988e-03, -5.30720875e-03,
          2.64061498e-03, 1.38201460e-03, 1.90900813e-03, 2.78635114e-03,
          4.78661852e-03, 4.86305309e-03, 4.74827178e-03, 4.23929747e-03,
          3.08866845e-03, 3.07633751e-03, 2.17110105e-03, 2.25306116e-03,
          4.26116772e-03, 6.31853379e-03, 3.86306387e-03, 2.26734369e-03,
          1.87175290e-03, 2.29176017e-03, -8.35356861e-03,
          9.50086222e-04, 1.11009681e-03, 1.00456306e-03, 2.92603718e-03,
          1.69703632e-03, 2.51776702e-03, 3.25997290e-03,
          -7.13639194e-03, -7.35300779e-03, 1.55868160e-03,
          3.55086988e-03, 2.34356965e-03, 5.26048196e-03, 2.01320625e-03,
          2.76745856e-03, 3.71558825e-03, -5.96968271e-03,
          3.55912955e-03, 1.96397910e-03, 1.80533435e-03, 2.08993955e-03,
          4.18837275e-03, 1.40279252e-03, 1.45525369e-03, 1.62399339e-03,
          2.14517745e-03, 5.08609135e-03, 3.12663894e-03, 4.65158606e-03,
          3.02711059e-03, 5.80112776e-03, 1.73562311e-03, 2.34184647e-03,
          3.09592159e-03, 4.73260833e-03, -8.57428834e-03,
          1.03793060e-03, 2.59673619e-03, 2.01510871e-03, 8.66943877e-03,
          1.98215502e-03, 1.93225907e-03, 3.01624299e-03,
          -6.60170196e-03, -1.05327945e-02, -3.78740742e-03,
          -5.50325552e-04, 8.79285217e-04, 8.66943877e-03,
          1.02104561e-03, 4.96624329e-04, 1.29565434e-03,
          -1.00666815e-02, 4.35025292e-03, 2.30450393e-03,
          4.09029797e-03, 2.01036292e-03, 8.66943877e-03, 2.44004861e-03,
          1.60246796e-03, 2.59416038e-03, 4.08798968e-03, 1.22923206e-03,
          6.84020983e-04, 8.27013282e-04, 6.50033297e-04, 8.66943877e-03,
          1.56154227e-03, 3.69372603e-04, 1.01197872e-03, 1.10076542e-03,
          -1.25646610e-02, -9.73063335e-03, -3.24569317e-03, 0.,
          1.60537697e-02, 0., 0., 0., -1.25646610e-02, -7.37260282e-03,
          -2.15586787e-03, -7.49006053e-04, 0., 0., 0., 0., 0.,
          -6.75825961e-03, 0., 0., 0., 0., 1.63494088e-02, 0., 0., 0.,
          0., 0., 0., 0., 0., 0., 0., 0., 0., 0., -6.33356394e-05, 0.,
          0., 0., -1.14721609e-02, 0., 0., 0., -6.33356394e-05, 0., 0.,
          0., 0., -1.14721609e-02, 0., 0., 0., 0., 0., 0., 0., 0.,
          -1.14721609e-02, 0., 0., 0., 0., 0., 0., 0., 0.,
          -1.14721609e-02, 0., 0., 0., 0., 0., 0., 0., 0.,
          -1.62074678e-02, 0., 0., 0., 0., 0., 0., 0., 0., 0., 0., 0.,
          0., 0., 0., 0., 0., 0., -1.62074678e-02, 0., 0., 0., 0., 0.,
          0., 0., 0., 0., 0., 0., 0., 0., 0., 0., 0., 0., 0., 0., 0., 0.,
          0., 0., 0., 0., 0., 0., 0., 0., 0., 0., 0., 0., 0., 0., 0., 0.,
          0., 0., 0., 0., 0., 0., 0., 0., 0., 0., 0., 0., 0., 0., 0., 0.,
          0., 0., 0., 0., 0., 0., 0., 0., 0., 0., 0., 0., 0., 0., 0., 0.,
          0., 0., 0., 0., 0., 0., 0., 0., 0., 0., 0., 0., 0., 0., 0., 0.,
          0., 0., 0., 0., 0., 0., 0., 0., 0., 0., 0., 0., 0.,
          -1.62074678e-02, 0., 0., 0., 0., 0., 0., 0., 0., 0., 0., 0.,
          0., 0., 0., 0., 0., 0., -1.62074678e-02, 0., 0., 0., 0., 0.,
          0., 0., 0., -1.44472467e-02, 0., 0., 0., 0., 0., 0., 0., 0.,
          -6.84314175e-03, 0., 0., 0., 0., 0., 0., 0., 0.,
          -1.44472467e-02, 0., 0., 0., 0., 0., 0., 0., 0.,
          -7.84174819e-03, 0., 0., 0., 0., 0., 0., 0., 0., 0., 0., 0.,
          0., 0., 0., 0., 0., 0., 1.47855664e-02, 0., 0., 0., 0., 0., 0.,
          0., 0., 0., 0., 0., 0., 0., 0., 0., 0., 0., 1.73340682e-02, 0.,
          0., 0., 0., 6.92082045e-04, 3.46484419e-04, 9.99722542e-05,
          1.80422247e-03, 8.99447128e-03, 9.84662765e-05, 1.48250998e-04,
          3.89798195e-04, 5.31950442e-04, 1.83746661e-03, 1.55773223e-03,
          8.47508258e-04, 2.76575540e-03, 9.53145418e-03, 6.43616251e-04,
          1.02827128e-03, 1.93349901e-03, 2.30635796e-03, 7.72528991e-04,
          5.57654537e-04, 1.34205940e-04, 3.12434859e-03, 9.58521105e-03,
          2.00160561e-04, 2.06779703e-04, 7.87389523e-04, 4.50940192e-04,
          1.74565893e-03, 1.47397164e-03, 7.75294553e-04, 4.41630231e-03,
          9.78075340e-03, 1.15426071e-03, 1.77875534e-03, 4.58184676e-03,
          2.36801128e-03, 1.47131190e-03, 1.43018248e-03, 1.46352756e-03,
          1.56942348e-03, 3.42750247e-03, 1.86989224e-03, 2.72732577e-03,
          2.68798159e-03, 1.72323047e-03, 1.20073906e-03, 1.09831733e-03,
          1.09255174e-03, 1.64433394e-03, 7.12561887e-03, 5.37331356e-03,
          3.50702251e-03, 1.87542522e-03, 1.15877204e-03, 2.19079503e-03,
          9.53512965e-04, 7.32917397e-04, 1.31837348e-03, 3.61296930e-03,
          1.91584625e-03, 4.98713646e-03, 6.02356857e-03, 2.35503633e-03,
          2.54755025e-03, 1.72558147e-03, 1.14424492e-03, 1.27381447e-03,
          7.38651678e-03, 5.75534441e-03, 6.21437328e-03, 3.33114318e-03,
          2.32174038e-03, 1.89347938e-03, 1.43937964e-03, 9.75323899e-04,
          1.23626995e-03, 5.00254426e-03, 3.71734495e-03, 2.55424785e-03,
          8.34512641e-04, 1.21848437e-03, 3.26342392e-03, 2.82260543e-03,
          1.76033878e-03, 2.31821672e-03, 4.68662009e-03, 4.72238148e-03,
          4.56825225e-03, 2.37239990e-03, 3.82763566e-03, 2.51915772e-03,
          1.94013910e-03, 1.44205848e-03, 1.71162374e-03, 5.53353131e-03,
          4.03197948e-03, 2.52003619e-03, 1.64450577e-03, 2.32043210e-03,
          3.56571632e-03, 2.86007486e-03, 1.92190323e-03, 3.74926161e-03,
          5.63314697e-03, 5.04237646e-03, 5.01813926e-03, 2.59302906e-03,
          3.58916097e-03, 4.49047424e-03, 2.82519171e-03, 1.52722222e-03,
          1.65863940e-03, 2.43707187e-03, 2.93273479e-03, 2.15230929e-03,
          2.45985575e-03, 4.53156885e-03, 4.12527518e-03, 2.67562689e-03,
          2.54841452e-03, 2.14893464e-03, 3.17536155e-03, 3.73418420e-03,
          3.01284483e-03, 3.48046375e-03, 4.72390512e-03, 3.46933468e-03,
          2.83336430e-03, 2.26079603e-03, 3.63726565e-03, 4.27395431e-03,
          4.06871689e-03, 3.17476480e-03, 2.43304227e-03, 4.41189390e-03,
          3.55825154e-03, 3.38690518e-03, 3.60544981e-03, 3.34669510e-03,
          5.10864332e-03, 5.20070689e-03, 2.88531114e-03, 3.60706565e-03,
          4.85990290e-03, 1.02620153e-03, 6.93886541e-04, 1.65004283e-03,
          2.13001738e-03, 4.68741124e-03, 4.55584470e-03, 3.94291524e-03,
          3.51026934e-03, 1.88911869e-03, 1.02004933e-03, 1.19720562e-03,
          2.55879504e-03, 3.28683853e-03, 4.84032556e-03, 2.71230075e-03,
          1.21170364e-03, 5.59314271e-04, 5.99420629e-04, 1.71963859e-03,
          1.44775084e-03, 2.01684795e-03, 2.11838097e-03, 5.54170040e-03,
          4.94490936e-03, 4.54837177e-03, 2.78885942e-03, 2.49372819e-03,
          2.09939387e-03, 1.71538338e-03, 3.44591611e-03, 3.66891222e-03,
          6.35340251e-03, 5.53376740e-03, 5.74593572e-03, 2.35485425e-03,
          2.07893318e-03, 1.97625253e-03, 1.56988972e-03, 2.15004757e-03,
          2.93307728e-03, 3.68632143e-03, 8.14393919e-04, 3.64883570e-04,
          4.04141698e-04, 1.03043322e-03, 4.72622924e-03, 3.21375299e-03,
          4.32710908e-03, 4.20531491e-03, 6.20860141e-03, 1.90764642e-03,
          1.28200301e-03, 1.46305491e-03, 3.06431577e-03, 2.15993612e-03,
          1.82280398e-03, 3.70087079e-03, 4.46022395e-03, 6.37113070e-03,
          2.74808193e-03, 2.59805610e-03, 2.41547427e-03, 2.40278314e-03,
          2.94021843e-03, 2.42576888e-03, 4.70851408e-03, 5.52551355e-03,
          6.84748916e-03, 3.47734825e-03, 2.03441828e-03, 1.85298361e-03,
          3.00119910e-03, 3.98985622e-03, 2.14162143e-03, 3.39597836e-03,
          2.73353001e-03, 8.69291928e-03, 2.51633953e-03, 1.24376104e-03,
          1.85138220e-03, 3.64149176e-03, 1.27167418e-03, 3.82316124e-04,
          7.89405487e-04, 6.28350535e-04, 8.69291928e-03, 1.34230999e-03,
          2.71668046e-04, 6.90943794e-04, 1.23456097e-03, 2.50590174e-03,
          1.56381214e-03, 2.88851699e-03, 3.91264446e-03, 8.69291928e-03,
          3.56041524e-03, 1.40446017e-03, 1.72123522e-03, 3.40448273e-03,
          8.04528419e-04, 2.14021376e-04, 3.76430398e-04, 8.28385353e-04,
          8.69291928e-03, 1.47640798e-03, 2.64505536e-04, 7.59836985e-04,
          1.41133415e-03, 0., 0., 0., 0., 1.71718653e-02, 0., 0., 0., 0.,
          0., 0., 0., 0., 0., 0., 0., 0., 0., 0., 0., 0., 0.,
          1.50606548e-02, 0., 0., 0., 0., 0., 0., 0., 0., 0., 0., 0., 0.,
          0., 0., 0., 0., 0., -1.14722485e-02, 0., 0., 0., 0., 0., 0.,
          0., 0., -1.14722485e-02, 0., 0., 0., 0., 0., 0., 0., 0.,
          -1.14722485e-02, 0., 0., 0., 0., 0., 0., 0., 0.,
          -1.14722485e-02, 0., 0., 0., 0., 0., 0., 0., 0.,
          -1.62074678e-02, 0., 0., 0., 0., 0., 0., 0., 0., 0., 0., 0.,
          0., 0., 0., 0., 0., 0., -1.62074678e-02, 0., 0., 0., 0., 0.,
          0., 0., 0., 0., 0., 0., 0., 0., 0., 0., 0., 0., 0., 0., 0., 0.,
          0., 0., 0., 0., 0., 0., 0., 0., 0., 0., 0., 0., 0., 0., 0., 0.,
          0., 0., 0., 0., 0., 0., 0., 0., 0., 0., 0., 0. ]
   uncompressed_sv_total: 9
   uncompressed_support_vectors:
      - [ 0., 0., 0., 0., 0., 0., 0., 0., 0., 0., 0., 0., 0., 0., 0., 0.,
          0., 0., 0., 0., 0., 0., 0., 0., 0., 0., 0., 0., 0., 0., 0., 0.,
          0., 0., 0., 0., 0., 0., 0., 0., 0., 0., 0., 0., 0., 0., 0., 0.,
          0., 7.04615593e-01, 0., 0., 0., 0., 0., 0., 0., 0., 0., 0., 0.,
          0., 0., 0., 0., 0., 0., 7.04615593e-01, 0., 0., 0., 0., 0., 0.,
          0., 0., 6.28090441e-01, 0., 0., 0., 0., 0., 0., 0., 0.,
          2.97503889e-01, 0., 0., 0., 0., 0., 0., 0., 0., 6.28090441e-01,
          0., 0., 0., 0., 0., 0., 0., 0., 3.40918034e-01, 0., 0., 0., 0.,
          0., 0., 0., 0., 0., 0., 0., 0., 0., 0., 0., 0., 0., 0., 0., 0.,
          0., 0., 0., 0., 0., 0., 0., 0., 0., 0., 0., 0., 0., 0., 0., 0.,
          0., 0., 0., 0., 0., 0., 0., 0., 0., 0., 0., 0., 0., 0., 0., 0.,
          0., 0., 0., 0., 0., 0., 0., 0., 0., 0., 0., 0., 0., 0., 0., 0.,
          0., 0., 0., 0., 0., 0., 0., 0., 0., 0., 0., 0., 0., 0., 0., 0.,
          0., 0., 0., 0., 0., 0., 0., 0., 0., 0., 0., 0., 0., 0., 0., 0.,
          0., 0., 0., 0., 0., 0., 0., 0., 0., 0., 0., 0., 0., 0., 0., 0.,
          0., 0., 0., 0., 0., 0., 0., 0., 0., 0., 0., 0., 0., 0., 0., 0.,
          0., 0., 0., 0., 0., 0., 0., 0., 0., 0., 0., 0., 0., 0., 0., 0.,
          0., 0., 0., 0., 0., 0., 0., 0., 0., 0., 0., 0., 0., 0., 0., 0.,
          0., 0., 0., 0., 0., 0., 0., 0., 0., 0., 0., 0., 0., 0., 0., 0.,
          0., 0., 0., 0., 0., 0., 0., 0., 0., 0., 0., 0., 0., 0., 0., 0.,
          0., 0., 0., 0., 0., 0., 0., 0., 0., 0., 0., 0., 0., 0., 0., 0.,
          0., 0., 0., 0., 0., 0., 0., 0., 0., 0., 0., 0., 0., 0., 0., 0.,
          0., 0., 0., 0., 0., 0., 0., 0., 0., 0., 0., 0., 0., 0., 0., 0.,
          0., 0., 0., 0., 0., 0., 0., 0., 0., 0., 0., 0., 0., 0., 0., 0.,
          0., 0., 0., 0., 0., 0., 0., 0., 0., 0., 0., 0., 0., 0., 0., 0.,
          0., 0., 0., 0., 0., 0., 0., 0., 0., 0., 0., 0., 0., 0., 0., 0.,
          0., 0., 0., 0., 0., 0., 0., 0., 0., 0., 0., 0., 0., 0., 0., 0.,
          0., 0., 0., 0., 0., 0., 0., 0., 0., 0., 0., 0., 0., 0., 0., 0.,
          0., 0., 0., 0., 0., 0., 0., 0., 4.98753130e-01, 0., 0., 0., 0.,
          0., 0., 0., 0., 4.98753130e-01, 0., 0., 0., 0., 0., 0., 0., 0.,
          4.98753130e-01, 0., 0., 0., 0., 0., 0., 0., 0., 4.98753130e-01,
          0., 0., 0., 0., 0., 0., 0., 0., 7.04615593e-01, 0., 0., 0., 0.,
          0., 0., 0., 0., 0., 0., 0., 0., 0., 0., 0., 0., 0.,
          7.04615593e-01, 0., 0., 0., 0., 0., 0., 0., 0., 0., 0., 0., 0.,
          0., 0., 0., 0., 0., 0., 0., 0., 0., 0., 0., 0., 0., 0., 0., 0.,
          0., 0., 0., 0., 0., 0., 0., 0., 0., 0., 0., 0., 0., 0., 0., 0.,
          0., 0., 0., 0., 0., 0., 0., 0., 0., 0., 0., 0., 0., 0., 0., 0.,
          0., 0., 0., 0., 0., 0., 0., 0., 0., 0., 0., 0., 0., 0., 0., 0.,
          0., 0., 0., 0., 0., 0., 0., 0., 0., 0., 0., 0., 0., 0., 0., 0.,
          0., 0., 0., 0., 6.57398195e-04, 2.22526793e-03, 7.02630281e-01,
          0., 0., 0., 0., 0., 0., 0., 0., 0., 0., 0., 0., 0., 0.,
          2.82747876e-02, 5.96036427e-02, 3.33790183e-02, 7.02630281e-01,
          1.16553493e-02, 0., 0., 0., 1.60384960e-02, 2.48049945e-03,
          4.70084883e-03, 4.37914627e-03, 4.31056172e-01, 0.,
          1.86311267e-03, 9.34412761e-04, 1.62199438e-02, 4.08843048e-02,
          3.18921311e-03, 5.38682705e-03, 3.40600265e-03, 1.78803086e-01,
          0., 1.27625000e-02, 6.16896804e-03, 4.12834920e-02,
          9.01234001e-02, 9.42165703e-02, 1.74515918e-01, 8.24605972e-02,
          4.31056172e-01, 3.35759185e-02, 2.82140002e-02, 1.56142302e-02,
          9.13184583e-02, 4.20199335e-01, 9.45122465e-02, 1.66953072e-01,
          7.26558417e-02, 3.03423166e-01, 3.15186083e-02, 1.92595854e-01,
          9.99116376e-02, 4.05410320e-01, 4.80666012e-02, 8.18735047e-04,
          1.12459075e-03, 0., 0., 0., 1.18912347e-02, 5.65445703e-03,
          4.82355617e-02, 4.56129052e-02, 0., 0., 0., 0., 0., 0., 0.,
          4.56129052e-02, 4.78003711e-01, 1.51390284e-02, 2.17450485e-02,
          5.53637277e-03, 7.94370845e-03, 7.34888902e-03, 1.82160720e-01,
          1.09879822e-01, 4.78003711e-01, 4.78003711e-01, 1.22002847e-02,
          5.38564241e-03, 3.44323018e-03, 6.44045509e-03, 1.79707557e-02,
          2.22543068e-02, 1.58577576e-01, 4.78003711e-01, 3.38272192e-02,
          0., 2.21641478e-03, 2.05400400e-03, 5.73809375e-04, 0., 0., 0.,
          3.38272192e-02, 2.19952073e-02, 0., 4.87611257e-03,
          4.51880880e-03, 8.60713981e-03, 0., 0., 0., 2.19952073e-02,
          3.98911685e-01, 2.92819217e-02, 5.33301570e-02, 7.82004446e-02,
          1.85118839e-02, 1.07708732e-02, 7.81043321e-02, 3.54397506e-01,
          3.98911685e-01, 3.98911685e-01, 4.95383851e-02, 1.11000240e-01,
          1.26943514e-01, 1.35206044e-01, 1.54438638e-03, 9.86998603e-02,
          3.93981010e-01, 3.98911685e-01, 7.81218521e-03, 0.,
          1.51070533e-03, 1.40000659e-03, 7.24868802e-03, 0., 0., 0.,
          7.81218521e-03, 0., 0., 0., 0., 0., 0., 0., 0., 0.,
          4.61890996e-01, 1.09487191e-01, 3.90114523e-02, 4.27454375e-02,
          1.08730316e-01, 5.63365757e-04, 3.94652374e-02, 2.38826990e-01,
          4.61890996e-01, 4.61890996e-01, 1.11800589e-01, 6.93508331e-03,
          2.87943077e-03, 0., 8.02834239e-03, 3.77392694e-02,
          2.05024451e-01, 4.61890996e-01, 0., 0., 0., 0., 0., 0., 0., 0.,
          0., 0., 0., 0., 0., 0., 0., 0., 0., 0., 4.39973503e-01,
          3.97496298e-02, 8.02922249e-03, 4.49674577e-03, 7.66716985e-05,
          6.85753720e-03, 1.21689208e-01, 3.74096990e-01, 4.39973503e-01,
          4.39973503e-01, 7.07027391e-02, 5.35281491e-04, 9.89283994e-03,
          1.68677740e-04, 7.78491842e-04, 6.25562519e-02, 2.36260295e-01,
          4.39973503e-01, 0., 0., 0., 0., 0., 0., 0., 0., 0., 0., 0., 0.,
          0., 0., 0., 0., 0., 0., 4.97392267e-01, 6.01151139e-02,
          1.24624406e-03, 2.25280528e-03, 3.84114246e-05, 1.96841589e-04,
          8.17530265e-04, 3.47253643e-02, 4.97392267e-01, 4.97392267e-01,
          2.33788099e-02, 1.60231383e-03, 0., 0., 0., 0., 7.74383871e-03,
          4.97392267e-01, 0., 0., 0., 0., 0., 0., 0., 0., 0., 0., 0., 0.,
          0., 0., 0., 0., 0., 0., 4.97847766e-01, 7.86462892e-03,
          1.97684625e-04, 0., 0., 0., 0., 3.35345720e-03, 4.97847766e-01,
          4.97847766e-01, 2.52430364e-02, 0., 0., 0., 0., 0.,
          5.39249964e-02, 4.97847766e-01, 0., 0., 0., 0., 0., 0., 0., 0.,
          0., 0., 0., 0., 0., 0., 0., 0., 0., 0., 4.97848243e-01,
          8.69302638e-03, 0., 0., 0., 0., 0., 5.81456013e-02,
          4.97848243e-01, 4.97848243e-01, 0., 0., 0., 0., 0., 0.,
          1.26436194e-02, 4.97848243e-01, 0., 0., 0., 0., 0., 0., 0., 0.,
          0., 0., 0., 0., 0., 0., 0., 0., 0., 0., 4.98356193e-01,
          7.35221198e-03, 4.29800362e-04, 9.64548497e-04, 4.14521855e-05,
          0., 0., 4.72474523e-04, 4.98356193e-01, 4.98356193e-01,
          2.89799366e-02, 9.45560809e-04, 1.24013377e-03, 5.32956656e-05,
          5.10234991e-03, 2.57537514e-02, 3.67480185e-04, 4.98356193e-01,
          0., 0., 0., 0., 0., 0., 0., 0., 0., 0., 0., 0., 0., 0., 0., 0.,
          0., 0., 4.33691114e-01, 1.78298652e-02, 2.84632551e-04,
          2.26420831e-04, 9.73060378e-06, 5.37735634e-02, 3.48729372e-01,
          0., 4.33691114e-01, 3.96267354e-01, 3.12499207e-04, 0., 0., 0.,
          5.78329004e-02, 4.33691114e-01, 0., 3.82373303e-01, 0., 0., 0.,
          0., 4.98627156e-01, 0., 0., 0., 0., 0., 0., 0., 0.,
          4.98627156e-01, 0., 0., 0., 0., 8.16396624e-03, 0., 0., 0.,
          4.98627156e-01, 1.31801178e-03, 1.95959806e-02, 0.,
          7.17919413e-03, 0., 0., 0., 0., 4.98627156e-01, 0., 0., 0., 0.,
          0., 0., 0., 0., 7.04615593e-01, 0., 0., 0., 0., 0., 0., 0., 0.,
          0., 0., 0., 0., 0., 0., 0., 0., 0., 7.04615593e-01, 0., 0., 0.,
          0., 0., 0., 0., 0., 0., 0., 0., 0., 0., 0., 0., 0., 0., 0., 0.,
          0., 0., 0., 0., 0., 0., 0., 0., 0., 0., 0., 0., 0., 0., 0., 0.,
          0., 0., 0., 0., 0., 0., 0., 0., 0., 0., 0., 0., 0., 0., 0., 0.,
          0., 0., 0., 0., 0., 0., 0., 0., 0., 0., 0., 0., 0., 0., 0., 0.,
          0., 0., 0., 0., 0., 0., 0., 0., 0., 0., 0., 0., 0., 0., 0., 0.,
          0., 0., 0., 0., 0., 0., 0., 0., 0., 0., 0., 0., 5.67508712e-02,
          1.10605858e-01, 4.51736860e-02, 6.84822559e-01, 4.87289689e-02,
          0., 0., 0., 0., 0., 0., 0., 0., 0., 0., 0., 0., 0.,
          7.57339969e-02, 1.36225984e-01, 9.24763009e-02, 6.84822559e-01,
          4.98506017e-02, 0., 0., 0., 3.93070392e-02, 9.93279293e-02,
          1.94583625e-01, 9.73520949e-02, 4.18165922e-01, 9.12953019e-02,
          1.46554392e-02, 8.74576997e-03, 3.87522504e-02, 2.55338401e-01,
          8.62407386e-02, 1.58260494e-01, 8.65658224e-02, 3.64526212e-01,
          7.61093423e-02, 1.01193681e-01, 5.81815839e-02, 2.57541776e-01,
          5.49183181e-03, 8.24543461e-02, 1.50852621e-01, 1.37985691e-01,
          4.18165922e-01, 7.88114741e-02, 4.15337214e-04, 5.58468688e-04,
          6.12707715e-03, 3.29091810e-02, 5.02394773e-02, 8.04856420e-02,
          1.00258827e-01, 4.13391411e-01, 6.08312599e-02, 5.88404248e-03,
          1.58068966e-02, 5.94056286e-02, 4.03757304e-01, 2.43655350e-02,
          2.26396434e-02, 2.50364766e-02, 2.71378718e-02, 2.79036611e-02,
          1.30180329e-01, 1.00612827e-01, 4.03757304e-01, 4.03757304e-01,
          5.67203201e-02, 2.72783451e-02, 4.11497243e-02, 6.79605380e-02,
          9.84379947e-02, 7.61961713e-02, 2.05442831e-01, 4.03757304e-01,
          8.57169628e-02, 2.26340536e-02, 1.02587389e-02, 6.37519732e-02,
          1.07751325e-01, 6.19574040e-02, 4.22598086e-02, 5.57220280e-02,
          1.43768147e-01, 9.26063210e-02, 7.24409372e-02, 3.25710662e-02,
          1.40818790e-01, 3.10817271e-01, 1.98555395e-01, 8.36950690e-02,
          6.04528487e-02, 1.05588600e-01, 2.87804842e-01, 4.22482453e-02,
          3.71171311e-02, 1.36787698e-01, 1.05691575e-01, 3.99672650e-02,
          7.53575414e-02, 2.08904609e-01, 2.87804842e-01, 2.87804842e-01,
          4.55333106e-02, 6.20525964e-02, 1.81935623e-01, 1.65634289e-01,
          3.67469974e-02, 9.82708633e-02, 2.82918483e-01, 2.87804842e-01,
          5.34007102e-02, 5.05269915e-02, 2.21853275e-02, 1.97489008e-01,
          2.87804842e-01, 1.05180338e-01, 4.86578308e-02, 3.45137455e-02,
          7.13505596e-02, 2.24314347e-01, 5.59734479e-02, 2.51996983e-02,
          2.25341946e-01, 2.87804842e-01, 1.63357288e-01, 8.45007300e-02,
          9.84090194e-02, 2.13723764e-01, 3.13447565e-01, 7.79346451e-02,
          2.53322143e-02, 6.33584037e-02, 5.75808771e-02, 1.86889730e-02,
          5.31904809e-02, 2.09086716e-01, 3.13447565e-01, 3.13447565e-01,
          9.30410698e-02, 3.24702822e-02, 2.22199969e-02, 1.60498377e-02,
          2.40549427e-02, 7.04818740e-02, 1.86973080e-01, 3.13447565e-01,
          2.56805271e-01, 5.50388992e-02, 3.25667299e-02, 1.11268468e-01,
          2.70280540e-01, 8.75784680e-02, 7.09615499e-02, 1.22606002e-01,
          2.94421762e-01, 1.37180209e-01, 6.99126646e-02, 8.35648924e-02,
          1.06816202e-01, 2.30686590e-01, 1.10030383e-01, 1.41175672e-01,
          1.24176919e-01, 2.81596065e-01, 3.04263383e-01, 5.91281019e-02,
          2.79913973e-02, 2.38101874e-02, 2.48833466e-02, 1.92107931e-02,
          1.41397879e-01, 2.51512259e-01, 3.04263383e-01, 3.04263383e-01,
          1.02144442e-01, 1.63740311e-02, 3.50658074e-02, 1.26633355e-02,
          5.39099146e-03, 8.28229189e-02, 1.85927510e-01, 3.04263383e-01,
          1.30532160e-01, 9.85948965e-02, 6.81435764e-02, 1.13612071e-01,
          1.90066934e-01, 1.17136642e-01, 2.25423485e-01, 1.58652216e-01,
          2.13025481e-01, 2.80609787e-01, 1.44532174e-01, 3.61842476e-02,
          1.38446018e-01, 8.35960358e-02, 5.68602271e-02, 1.82590201e-01,
          1.68089882e-01, 2.76717901e-01, 3.57242107e-01, 7.62991607e-02,
          1.79254152e-02, 1.48413144e-02, 2.57177418e-03, 6.90965354e-03,
          1.83645859e-02, 6.58387393e-02, 3.57242107e-01, 3.57242107e-01,
          3.73049192e-02, 1.96237508e-02, 6.75937347e-03, 5.66069130e-03,
          1.17404079e-02, 1.95001569e-02, 3.28915901e-02, 3.57242107e-01,
          3.36589873e-01, 7.81670883e-02, 3.04453541e-02, 4.91646565e-02,
          2.11498067e-02, 2.93747913e-02, 7.82194436e-02, 1.17991544e-01,
          2.15942264e-01, 3.57242107e-01, 4.42681275e-02, 3.79870944e-02,
          1.31428363e-02, 3.94054875e-02, 4.28905711e-02, 1.04834750e-01,
          1.34123594e-01, 3.42200875e-01, 3.52325171e-01, 1.02629764e-02,
          4.71824454e-03, 1.42537116e-03, 2.83285091e-03, 5.07837115e-03,
          5.62236272e-03, 1.15421945e-02, 3.52325171e-01, 3.52325171e-01,
          2.40788031e-02, 2.05060910e-03, 2.80636642e-03, 5.70631411e-04,
          1.99582451e-03, 1.10851333e-03, 7.07678869e-02, 3.52325171e-01,
          3.52325171e-01, 1.53564261e-02, 1.16819423e-02, 5.11371344e-03,
          2.71097440e-02, 2.64254771e-02, 5.91535121e-02, 8.00164342e-02,
          3.52325171e-01, 3.21338743e-01, 2.40073539e-02, 8.98180623e-03,
          7.53848860e-03, 6.92815892e-03, 7.18754297e-03, 1.35354744e-02,
          7.50087276e-02, 3.52325171e-01, 3.54990035e-01, 1.01896925e-02,
          3.99557920e-03, 5.10639045e-03, 2.09781770e-02, 1.10528534e-02,
          1.12007791e-03, 7.11833388e-02, 3.54990035e-01, 3.54990035e-01,
          6.03052694e-03, 3.87869845e-03, 1.11996308e-02, 6.82864115e-02,
          3.63285169e-02, 4.26092651e-03, 2.30870303e-02, 3.54990035e-01,
          2.65990645e-01, 1.95840430e-02, 1.15370844e-02, 8.47413111e-03,
          3.64563465e-02, 1.79530662e-02, 3.92034044e-03, 5.93857951e-02,
          3.54990035e-01, 3.54990035e-01, 2.80788448e-02, 9.32653993e-03,
          3.55214365e-02, 1.27933294e-01, 7.54012540e-02, 9.27347690e-03,
          3.21267918e-02, 3.54990035e-01, 3.38681370e-01, 2.06445213e-02,
          7.62793515e-03, 1.95633285e-02, 3.03782597e-02, 2.98267342e-02,
          1.06660202e-02, 2.14811880e-02, 3.38681370e-01, 3.38681370e-01,
          6.13174364e-02, 9.89899784e-03, 3.97069603e-02, 2.62196269e-02,
          2.18900777e-02, 5.53894453e-02, 3.26791927e-02, 3.38681370e-01,
          3.38681370e-01, 6.10339604e-02, 2.06101369e-02, 5.14132120e-02,
          5.92588633e-02, 6.59752563e-02, 2.47134753e-02, 5.29137552e-02,
          3.23195010e-01, 3.38681370e-01, 1.26839265e-01, 4.88728695e-02,
          1.16116516e-01, 7.84315988e-02, 6.09476976e-02, 7.82112554e-02,
          9.60346684e-02, 3.38681370e-01, 2.87071586e-01, 4.49104272e-02,
          4.85986006e-03, 4.02938388e-02, 2.17098016e-02, 4.34548445e-02,
          2.72160739e-01, 2.45283842e-02, 2.87071586e-01, 2.49456450e-01,
          1.16685452e-02, 3.64359678e-03, 1.30457403e-02, 4.35997583e-02,
          7.89872706e-02, 2.87071586e-01, 9.48743448e-02, 2.41804034e-01,
          2.87071586e-01, 1.08066216e-01, 4.41262014e-02, 1.45661935e-01,
          9.21478197e-02, 6.65030628e-02, 1.98634535e-01, 5.80098182e-02,
          2.68613756e-01, 1.64980024e-01, 3.40871140e-02, 3.75038497e-02,
          8.11855122e-02, 2.05458179e-01, 2.06539541e-01, 2.87071586e-01,
          2.40333349e-01, 1.56476706e-01, 2.63980124e-02, 4.15558781e-04,
          1.66654109e-03, 1.31420500e-03, 4.51539338e-01, 3.27871554e-02,
          1.41072154e-01, 5.31021729e-02, 3.34723666e-02, 0., 0.,
          9.86895320e-05, 7.85230732e-05, 4.51539338e-01, 2.55687698e-03,
          2.95872660e-03, 2.60011642e-03, 0., 1.95717942e-02,
          1.41344406e-03, 2.29589399e-02, 4.02624235e-02, 4.51539338e-01,
          1.40804842e-01, 3.08383226e-01, 1.85511202e-01, 3.06364037e-02,
          0., 0., 1.48034305e-03, 5.66127617e-03, 4.51539338e-01,
          1.29414536e-02, 2.84390636e-02, 2.18035616e-02, 0., 0., 0., 0.,
          0., 7.04615593e-01, 0., 0., 0., 0., 0., 0., 0., 0., 0., 0., 0.,
          0., 0., 0., 0., 0., 0., 7.04615593e-01, 0., 0., 0., 0., 0., 0.,
          0., 0., 0., 0., 0., 0., 0., 0., 0., 0., 0., 0., 0., 0., 0., 0.,
          0., 0., 0., 0., 0., 0., 0., 0., 0., 0., 0., 0., 0., 0., 0., 0.,
          0., 0., 0., 0., 0., 0., 0., 0., 0., 0., 0., 0., 0., 0., 0., 0.,
          0., 0., 0., 0., 0., 0., 0., 0., 0., 0., 0., 0., 0., 0., 0., 0.,
          0., 0., 0., 0., 0., 0., 0., 0., 0., 0., 0., 0., 0., 0., 0., 0.,
          0., 0., 0., 0., 0., 0., 0., 0., 0., 2.35922411e-02,
          4.71134782e-02, 8.16057622e-02, 6.92331195e-01, 4.17313389e-02,
          0., 0., 0., 0., 0., 0., 0., 0., 0., 0., 0., 0., 0., 0., 0.,
          3.60761918e-02, 6.92331195e-01, 8.62200633e-02, 8.11916292e-02,
          8.91015083e-02, 0., 2.59490614e-03, 2.78880820e-02,
          5.53001575e-02, 1.19928867e-01, 4.72895533e-01, 6.28765300e-02,
          2.91229365e-03, 7.02846562e-04, 4.00439603e-03, 1.74629539e-02,
          2.04222389e-02, 2.96819340e-02, 8.12782273e-02, 4.72895533e-01,
          4.57837097e-02, 1.23631842e-02, 1.33300461e-02, 3.03472355e-02,
          7.62185548e-03, 1.35754107e-03, 7.68121739e-04, 4.88251448e-02,
          4.72895533e-01, 1.33818433e-01, 9.97960418e-02, 1.10140048e-01,
          9.17387195e-03, 6.39850050e-02, 1.74612645e-02, 8.72350950e-03,
          3.09690312e-02, 4.72895533e-01, 9.32925195e-02, 5.90729415e-02,
          6.79303408e-02, 4.71937060e-02, 5.50322905e-02, 2.46614944e-02,
          1.22577082e-02, 1.15422755e-01, 3.18655968e-01, 1.27649128e-01,
          3.71330641e-02, 5.63131087e-02, 9.11192074e-02, 6.10287674e-02,
          5.60034886e-02, 2.16554459e-02, 2.75229722e-01, 3.48632693e-01,
          3.00018042e-01, 3.59107293e-02, 3.87005322e-02, 5.18177114e-02,
          1.95533931e-01, 6.35791346e-02, 6.83305562e-02, 1.14355654e-01,
          3.07166457e-01, 1.70303985e-01, 3.20310630e-02, 4.05291617e-02,
          1.48112088e-01, 6.67807683e-02, 5.94189763e-02, 1.39094949e-01,
          3.14872384e-01, 3.48632693e-01, 2.91113138e-01, 5.90595119e-02,
          2.39589736e-02, 6.15696870e-02, 3.05422451e-02, 3.73343565e-02,
          2.00008489e-02, 1.67356580e-01, 3.24130207e-01, 1.26929760e-01,
          2.38913000e-02, 2.64616292e-02, 1.55165074e-02, 2.56590337e-01,
          9.97828543e-02, 7.76475593e-02, 2.40926787e-01, 3.24130207e-01,
          1.70371577e-01, 5.90795353e-02, 9.20101106e-02, 1.68722659e-01,
          1.59970950e-02, 3.37946787e-02, 6.09120242e-02, 1.47885010e-01,
          3.24130207e-01, 1.42286256e-01, 6.85491338e-02, 9.14395675e-02,
          1.12817138e-02, 1.18827797e-01, 1.13198765e-01, 1.61601916e-01,
          3.24130207e-01, 3.24130207e-01, 2.07404867e-01, 1.30323038e-01,
          1.83855042e-01, 8.07309002e-02, 2.33054265e-01, 1.00168936e-01,
          9.47641656e-02, 1.27725571e-01, 2.52237678e-01, 8.14800188e-02,
          8.14485252e-02, 8.09518769e-02, 1.98031008e-01, 4.27054279e-02,
          5.83139881e-02, 8.26100633e-02, 1.53540254e-01, 2.52237678e-01,
          1.33372799e-01, 1.36367843e-01, 7.91957304e-02, 6.73003271e-02,
          1.63119704e-01, 1.44089401e-01, 1.45327643e-01, 2.24116147e-01,
          2.52237678e-01, 1.81921467e-01, 1.66524157e-01, 1.76667199e-01,
          1.75807774e-01, 1.93233028e-01, 1.13242097e-01, 1.36129156e-01,
          1.31422773e-01, 2.51596808e-01, 1.67132631e-01, 1.85602143e-01,
          2.41202384e-01, 2.52237678e-01, 4.02577929e-02, 8.48146528e-02,
          8.42175335e-02, 1.87065721e-01, 2.52605259e-01, 2.16670603e-01,
          1.63127109e-01, 1.08076707e-01, 3.26169133e-02, 9.40093026e-02,
          1.21535450e-01, 7.44969025e-02, 1.58849135e-01, 1.91939890e-01,
          1.49898618e-01, 1.63088247e-01, 1.27344474e-01, 1.09187335e-01,
          1.97068274e-01, 1.56490281e-01, 2.52605259e-01, 2.52605259e-01,
          2.52605259e-01, 1.66493818e-01, 1.06300898e-01, 2.38349691e-01,
          1.85677350e-01, 8.25194567e-02, 1.18745737e-01, 2.31794432e-01,
          1.91170931e-01, 2.52605259e-01, 1.58274278e-01, 9.05079842e-02,
          1.46270603e-01, 1.15474813e-01, 1.47141457e-01, 9.06076878e-02,
          6.67222440e-02, 1.05308078e-01, 1.12825841e-01, 1.05979078e-01,
          1.72193855e-01, 1.92329332e-01, 1.78220764e-01, 2.30667800e-01,
          5.36415875e-02, 6.43819943e-02, 3.73450518e-02, 2.09436998e-01,
          1.28022149e-01, 2.15244949e-01, 2.59440809e-01, 2.66259640e-01,
          1.32306859e-01, 1.38222858e-01, 1.38837472e-01, 9.96883735e-02,
          2.17754915e-01, 1.19532906e-01, 1.76372170e-01, 1.59788266e-01,
          1.95182890e-01, 2.66259640e-01, 1.24689586e-01, 8.76663029e-02,
          9.17114243e-02, 2.33574718e-01, 1.01367339e-01, 1.88905388e-01,
          1.64146751e-01, 2.66259640e-01, 2.00131491e-01, 2.83470005e-02,
          2.37793326e-02, 2.74449028e-02, 2.14436874e-01, 1.52999923e-01,
          1.64462984e-01, 2.10189000e-01, 2.91147441e-01, 1.71870977e-01,
          4.28977199e-02, 2.29477547e-02, 2.23184768e-02, 7.93843120e-02,
          7.07490742e-02, 6.07089251e-02, 1.10478573e-01, 2.91147441e-01,
          2.91147441e-01, 1.00378826e-01, 3.62279452e-02, 1.23899512e-01,
          2.42704853e-01, 1.79348588e-01, 1.06353678e-01, 1.46400750e-01,
          2.91147441e-01, 2.91147441e-01, 1.45228684e-01, 1.05499648e-01,
          9.03950036e-02, 1.46372467e-01, 1.20283633e-01, 5.70318438e-02,
          1.26485169e-01, 2.91147441e-01, 3.03886741e-01, 8.06740224e-02,
          3.58321331e-02, 2.50064377e-02, 6.19877018e-02, 3.93184982e-02,
          1.82990525e-02, 8.17715675e-02, 3.25743496e-01, 3.25743496e-01,
          1.53968751e-01, 3.62782851e-02, 6.03871234e-02, 1.45179287e-01,
          1.06819339e-01, 2.15217751e-02, 5.79112694e-02, 3.25743496e-01,
          3.25743496e-01, 1.40703052e-01, 1.30708888e-01, 7.89608955e-02,
          1.04652256e-01, 4.66447845e-02, 1.15139121e-02, 8.01796764e-02,
          3.07785660e-01, 3.25743496e-01, 1.44614771e-01, 8.44954103e-02,
          6.20066188e-02, 5.39929681e-02, 5.35668395e-02, 2.41516288e-02,
          5.62025160e-02, 2.98480362e-01, 2.67757505e-01, 1.60506874e-01,
          4.88145314e-02, 6.08624294e-02, 5.95982820e-02, 9.09877643e-02,
          5.73465489e-02, 6.46250397e-02, 2.67757505e-01, 1.81913227e-01,
          1.87857255e-01, 1.30866125e-01, 2.40804121e-01, 2.67757505e-01,
          2.67757505e-01, 1.33666590e-01, 1.37914792e-01, 1.82599723e-01,
          2.35428929e-01, 1.00203782e-01, 6.05513677e-02, 4.07182463e-02,
          5.65054156e-02, 5.90816587e-02, 3.98248099e-02, 7.09992573e-02,
          1.97746113e-01, 1.69792235e-01, 9.64953899e-02, 1.93895504e-01,
          1.99259773e-01, 2.67757505e-01, 2.60896236e-01, 1.06081478e-01,
          1.81326851e-01, 1.52108535e-01, 6.15003668e-02, 7.18631223e-02,
          6.15992285e-02, 1.73659876e-01, 2.37185732e-01, 1.75115153e-01,
          4.93122637e-02, 4.63706739e-02, 5.80179654e-02, 4.34668884e-02,
          3.46722752e-02, 5.14877886e-02, 1.98271573e-01, 2.96709031e-01,
          2.68967539e-01, 2.32441708e-01, 1.64340332e-01, 3.96813117e-02,
          1.35943934e-01, 5.65731153e-02, 1.04248896e-01, 1.13720663e-01,
          2.30068684e-01, 1.72172174e-01, 3.90357710e-02, 7.15292245e-02,
          9.60206687e-02, 1.60066530e-01, 2.96709031e-01, 2.96709031e-01,
          2.83187360e-01, 2.96709031e-01, 1.78377822e-01, 1.32125705e-01,
          4.25352640e-02, 7.93338418e-02, 2.14041770e-03, 4.67582466e-03,
          1.53587051e-02, 7.53494501e-02, 4.71694618e-01, 9.60368291e-02,
          1.12036578e-01, 7.22053796e-02, 3.51968314e-03, 0.,
          7.96304608e-04, 1.27929403e-03, 1.12963151e-02, 4.71694618e-01,
          1.15671214e-02, 1.81718171e-02, 1.18480586e-02, 0.,
          1.57714412e-02, 1.62103608e-01, 1.49909914e-01, 1.04140729e-01,
          4.71694618e-01, 8.02045912e-02, 6.19723760e-02, 4.90601640e-03,
          3.66720185e-03, 0., 2.86440328e-02, 1.61722135e-02,
          8.50659423e-03, 4.71694618e-01, 1.58492532e-02, 8.29999801e-03,
          2.99987383e-04, 0., 0., 0., 0., 0., 7.04615593e-01, 0., 0., 0.,
          0., 0., 0., 0., 0., 0., 0., 0., 0., 0., 0., 0., 0., 0.,
          7.04615593e-01, 0., 0., 0., 0., 0., 0., 0., 0., 0., 0., 0., 0.,
          0., 0., 0., 0., 0., 0., 0., 0., 0., 0., 0., 0., 0., 0., 0., 0.,
          0., 0., 0., 0., 0., 0., 0., 0., 0., 0., 0., 0., 0., 0., 0., 0.,
          0., 0., 0., 0., 0., 0., 0., 0., 0., 0., 0., 0., 0., 0., 0., 0.,
          0., 0., 0., 0., 0., 0., 0., 0., 0., 0., 0., 0., 0., 0., 0., 0.,
          0., 0., 0., 0., 0., 0., 0., 0., 0., 0., 0., 0., 0., 0., 0., 0.,
          0., 0., 0., 0., 0., 4.43651155e-02, 6.91597998e-01,
          2.93495841e-02, 1.01035275e-01, 1.07647054e-01, 0., 0., 0., 0.,
          0., 0., 0., 0., 0., 0., 0., 0., 0., 3.97695042e-02,
          6.91597998e-01, 0., 7.47084394e-02, 6.84969053e-02, 0.,
          1.62389744e-02, 4.98084002e-04, 2.19261332e-04, 6.68025017e-02,
          3.91713411e-01, 4.90683317e-02, 1.27524808e-01, 1.24363877e-01,
          2.16330327e-02, 1.08839460e-01, 7.51065416e-03, 2.56034988e-03,
          5.20056002e-02, 3.36713463e-01, 4.14019376e-02, 8.72106999e-02,
          8.15335140e-02, 1.20782048e-01, 8.46891254e-02, 1.46443170e-04,
          1.61754599e-06, 6.22541904e-02, 3.91713411e-01, 1.95202343e-02,
          1.71296835e-01, 1.12819150e-01, 8.79144445e-02, 3.91713411e-01,
          2.99437018e-03, 2.42631904e-05, 4.99612652e-02, 2.90620863e-01,
          2.59884465e-02, 1.62774563e-01, 9.53285173e-02, 3.91713411e-01,
          1.98680162e-01, 2.22711489e-02, 4.23616804e-02, 2.71814764e-02,
          3.82363535e-02, 5.04127182e-02, 2.38194335e-02, 1.31179998e-02,
          2.31657907e-01, 1.54886171e-01, 3.75201069e-02, 1.41943976e-01,
          8.14871117e-02, 1.41257122e-01, 8.94771144e-02, 8.29703957e-02,
          2.16789972e-02, 2.31947348e-01, 3.86054546e-01, 1.55522563e-02,
          7.28955641e-02, 3.09304614e-02, 9.82722268e-03, 2.23375931e-02,
          3.90643068e-02, 1.04185808e-02, 3.86054546e-01, 3.86054546e-01,
          3.40847597e-02, 2.97890693e-01, 1.19060025e-01, 4.00996283e-02,
          6.64133951e-02, 1.92706600e-01, 4.25124690e-02, 3.86054546e-01,
          9.41092893e-02, 3.87800261e-02, 1.03632905e-01, 7.84431919e-02,
          1.11236393e-01, 6.68519512e-02, 8.80031288e-02, 1.14655748e-01,
          1.42017215e-01, 1.31229639e-01, 1.19146243e-01, 1.28335223e-01,
          1.76517770e-01, 2.32781485e-01, 1.19683102e-01, 1.40544072e-01,
          1.73793271e-01, 1.60473943e-01, 2.58352101e-01, 4.23205681e-02,
          2.53986180e-01, 1.47612333e-01, 1.10785402e-01, 6.47434965e-02,
          1.37391418e-01, 1.34932190e-01, 2.58352101e-01, 2.58352101e-01,
          2.27661103e-01, 2.48254493e-01, 2.14237645e-01, 2.11519450e-01,
          9.55821872e-02, 1.76316217e-01, 1.89881176e-01, 2.58352101e-01,
          2.82625943e-01, 1.10101812e-01, 8.89221281e-02, 1.02275997e-01,
          1.64831489e-01, 1.02291808e-01, 1.04988791e-01, 1.37737453e-01,
          2.81605184e-01, 3.07360351e-01, 9.30200294e-02, 7.98786730e-02,
          4.25621681e-02, 5.33130951e-02, 5.22111394e-02, 6.49387762e-02,
          1.66259333e-01, 3.07360351e-01, 3.07360351e-01, 1.76031083e-01,
          2.06756085e-01, 8.78437907e-02, 7.62130469e-02, 3.62798162e-02,
          9.85909700e-02, 8.55682939e-02, 3.07360351e-01, 3.07360351e-01,
          7.43646398e-02, 7.80537128e-02, 1.58963148e-02, 7.53373327e-03,
          4.00182791e-03, 1.05871325e-02, 2.93208472e-02, 3.07360351e-01,
          3.12748075e-01, 1.79719970e-01, 1.42357722e-01, 1.06326088e-01,
          9.69317704e-02, 5.81927076e-02, 3.87848653e-02, 1.45537108e-01,
          3.07069868e-01, 3.12748075e-01, 1.24721825e-01, 1.01685598e-01,
          9.50524285e-02, 1.17906690e-01, 7.49360994e-02, 3.73479985e-02,
          1.22305095e-01, 2.88360298e-01, 3.12748075e-01, 1.85679913e-01,
          3.60674821e-02, 2.05643829e-02, 2.25414783e-02, 2.05427092e-02,
          5.25547517e-03, 2.41746623e-02, 3.12748075e-01, 3.12748075e-01,
          1.35105953e-01, 1.95155405e-02, 1.86489224e-02, 2.79679354e-02,
          3.30300815e-02, 6.94323145e-03, 6.14620708e-02, 3.12748075e-01,
          2.45942652e-01, 6.90582618e-02, 2.81900875e-02, 3.24095711e-02,
          4.91981693e-02, 3.62515002e-02, 4.29587066e-02, 9.74632055e-02,
          3.17562729e-01, 2.89278746e-01, 1.17690779e-01, 2.98044719e-02,
          4.85800430e-02, 5.80363981e-02, 8.86754915e-02, 7.95308501e-02,
          8.89529809e-02, 3.17562729e-01, 3.17562729e-01, 3.86176892e-02,
          4.82120737e-03, 9.91430972e-03, 1.65588669e-02, 5.61874025e-02,
          1.43449605e-02, 8.46365839e-02, 3.17562729e-01, 3.17562729e-01,
          1.36530280e-01, 4.21706103e-02, 1.25546396e-01, 1.59218699e-01,
          3.17562729e-01, 6.56129047e-02, 6.49810657e-02, 3.17562729e-01,
          3.20473343e-01, 1.10796906e-01, 2.25564837e-02, 5.10247275e-02,
          5.40885627e-02, 5.08488715e-02, 4.49806489e-02, 3.59892435e-02,
          3.34390849e-01, 3.34390849e-01, 6.83239773e-02, 3.34756598e-02,
          2.79349592e-02, 2.31298283e-02, 1.09600881e-02, 1.26799252e-02,
          1.70510281e-02, 3.34390849e-01, 3.34390849e-01, 1.42156512e-01,
          3.35514434e-02, 1.03025317e-01, 1.55250922e-01, 1.34993210e-01,
          4.14474420e-02, 1.43890642e-02, 3.34390849e-01, 3.34390849e-01,
          4.46523875e-02, 8.58595874e-03, 1.14844954e-02, 3.02004330e-02,
          1.15070934e-03, 5.11285290e-03, 1.75030774e-03, 3.34390849e-01,
          3.52582037e-01, 2.75791846e-02, 2.01495551e-02, 9.50031634e-03,
          9.08352807e-03, 2.29754369e-03, 4.24676313e-04, 4.11239453e-03,
          3.52582037e-01, 3.52582037e-01, 1.79029386e-02, 9.04784538e-03,
          6.64890092e-03, 4.70621232e-03, 3.65193584e-03, 2.22880393e-03,
          6.68563927e-03, 3.52582037e-01, 3.52582037e-01, 6.45061582e-03,
          1.55664841e-03, 7.17407907e-04, 6.87779830e-05, 0., 0.,
          2.71794706e-04, 3.52582037e-01, 3.52582037e-01, 4.80201282e-03,
          2.64536997e-04, 1.17140189e-04, 2.52363316e-05, 3.67479188e-05,
          1.15156618e-04, 1.82592811e-03, 3.52582037e-01, 3.38840783e-01,
          2.27612872e-02, 9.76891164e-03, 7.50669558e-03, 9.50027350e-03,
          8.72226711e-03, 4.49795509e-03, 3.17182615e-02, 3.38840783e-01,
          3.38840783e-01, 1.60008892e-01, 6.85086772e-02, 2.59806924e-02,
          3.54979001e-02, 2.40939315e-02, 1.75298769e-02, 8.55690017e-02,
          3.38840783e-01, 3.38840783e-01, 1.77212413e-02, 1.68231875e-03,
          4.34203976e-04, 4.05438856e-04, 5.58248954e-04, 4.93306026e-04,
          1.19366879e-02, 3.38840783e-01, 3.38840783e-01, 1.80243626e-01,
          4.18442264e-02, 1.76637643e-03, 1.88067625e-03, 1.22600689e-03,
          4.00555087e-03, 3.29096951e-02, 3.38840783e-01, 2.77680993e-01,
          2.32501879e-01, 1.33695275e-01, 2.74082702e-02, 4.72253636e-02,
          2.93646473e-02, 2.13925056e-02, 7.42701069e-02, 2.77680993e-01,
          2.77680993e-01, 2.77680993e-01, 2.77680993e-01, 7.92317912e-02,
          1.57927826e-01, 3.87089849e-02, 7.22436905e-02, 4.47111875e-02,
          2.21906096e-01, 2.77680993e-01, 2.46719003e-01, 1.01347342e-01,
          1.45489990e-03, 1.80731015e-03, 1.05427951e-03, 5.56062115e-03,
          2.81079523e-02, 2.77680993e-01, 2.76629537e-01, 1.94882974e-01,
          2.40293875e-01, 1.35957752e-03, 1.55544244e-02, 1.17287098e-03,
          8.39494634e-03, 1.79340094e-02, 2.04206854e-01, 6.15088344e-02,
          2.40054831e-01, 2.94098973e-01, 4.99320365e-02, 4.53142554e-01,
          3.24091054e-02, 5.38347475e-02, 1.00778555e-02, 2.21712030e-02,
          0., 3.09924241e-02, 1.95223168e-02, 2.32218415e-03,
          4.53142554e-01, 5.64663345e-03, 5.04897255e-03, 0., 0.,
          4.61074524e-02, 6.45734295e-02, 1.04526021e-01, 6.20569044e-04,
          4.53142554e-01, 7.34432484e-04, 4.05105110e-03, 4.48765839e-03,
          2.23647021e-02, 0., 2.99196038e-03, 3.14411847e-03, 0.,
          4.53142554e-01, 4.89621671e-05, 1.81445328e-04, 0., 0., 0., 0.,
          0., 0., 7.04615593e-01, 0., 0., 0., 0., 0., 0., 0., 0., 0., 0.,
          0., 0., 0., 0., 0., 0., 0., 7.04615593e-01, 0., 0., 0., 0., 0.,
          0., 0., 0., 0., 0., 0., 0., 0., 0., 0., 0., 0., 0., 0., 0., 0.,
          0., 0., 0., 0., 0., 0., 0., 0., 0., 0., 0., 0., 0., 0., 0., 0.,
          0., 0., 0., 0., 0., 0., 0., 0., 0., 0., 0., 0., 0., 0., 0., 0.,
          0., 0., 0., 0., 0., 0., 0., 0., 0., 0., 0., 0., 0., 0., 0., 0.,
          0., 0., 0., 0., 0., 0., 0., 0., 0., 0., 0., 0., 0., 0., 0., 0.,
          0., 0., 0., 0., 0., 0., 0., 0., 0., 0., 0., 0., 4.10231110e-03,
          7.04343736e-01, 0., 2.02206001e-02, 1.85245350e-02, 0., 0., 0.,
          0., 0., 0., 0., 0., 0., 0., 0., 0., 0., 0., 7.04343736e-01, 0.,
          0., 0., 0., 7.74496198e-02, 1.48000599e-05, 0., 1.05216550e-02,
          5.18039644e-01, 6.88221585e-03, 9.03074145e-02, 5.41439243e-02,
          7.76183084e-02, 3.49857926e-01, 4.08571359e-04, 0.,
          8.55387934e-03, 2.59941250e-01, 8.84856284e-03, 9.01017040e-02,
          4.69475873e-02, 4.01533991e-01, 0., 0., 0., 0., 5.18039644e-01,
          0., 0., 0., 0., 0., 0., 0., 0., 2.70471215e-01, 0., 0., 0., 0.,
          4.69160706e-01, 6.96722884e-03, 6.31128252e-02, 2.32599154e-02,
          1.76532520e-03, 6.56518480e-03, 2.86863074e-02, 5.38212247e-03,
          4.69160706e-01, 4.69160706e-01, 1.53510375e-02, 2.63888568e-01,
          9.93521288e-02, 4.08144528e-03, 4.16019969e-02, 1.64678812e-01,
          2.80321054e-02, 4.69160706e-01, 0., 0., 0., 0., 0., 0., 0., 0.,
          0., 0., 0., 0., 0., 0., 0., 0., 0., 0., 3.35151255e-01,
          4.47130091e-02, 2.79427767e-01, 1.59040242e-01, 1.49059266e-01,
          7.47734159e-02, 1.41408399e-01, 1.01134464e-01, 3.35151255e-01,
          3.35151255e-01, 2.75025159e-01, 2.93752491e-01, 2.77274877e-01,
          2.73312718e-01, 1.14382364e-01, 1.84267446e-01, 1.49863631e-01,
          3.35151255e-01, 5.97117748e-03, 0., 0., 0., 0., 0., 0., 0.,
          5.97117748e-03, 2.07339786e-02, 0., 0., 0., 0., 0., 0., 0.,
          2.07339786e-02, 4.00454193e-01, 2.93252647e-01, 4.00454193e-01,
          1.98955774e-01, 1.15564406e-01, 4.10468057e-02, 1.62860677e-01,
          9.96601358e-02, 4.00454193e-01, 4.00454193e-01, 6.51120469e-02,
          1.11260638e-01, 9.50840674e-03, 1.19810556e-05, 0.,
          8.35617445e-03, 6.55300170e-03, 4.00454193e-01, 1.19077638e-02,
          0., 0., 0., 0., 0., 0., 0., 1.19077638e-02, 0., 0., 0., 0., 0.,
          0., 0., 0., 0., 4.84104782e-01, 1.89086869e-01, 7.48703303e-03,
          1.45053782e-03, 0., 0., 0., 0., 4.84104782e-01, 4.84104782e-01,
          1.44198924e-01, 2.44549173e-03, 1.12819613e-03, 0., 0., 0.,
          3.35031226e-02, 4.84104782e-01, 0., 0., 0., 0., 0., 0., 0., 0.,
          0., 0., 0., 0., 0., 0., 0., 0., 0., 0., 4.15790647e-01,
          6.87547866e-03, 7.93454645e-04, 0., 1.40416315e-02,
          7.65431076e-02, 0., 4.04568948e-02, 4.15790647e-01,
          4.15790647e-01, 9.31061208e-02, 5.85420616e-02, 2.02706337e-01,
          2.62361795e-01, 4.15790647e-01, 3.75277176e-02, 1.63882263e-02,
          4.15790647e-01, 0., 0., 0., 0., 0., 0., 0., 0., 0., 0., 0., 0.,
          0., 0., 0., 0., 0., 0., 4.20978397e-01, 1.41683593e-01,
          5.93064576e-02, 2.23208383e-01, 3.47498089e-01, 2.92314827e-01,
          4.13233340e-02, 1.79243332e-03, 4.20978397e-01, 4.20978397e-01,
          2.90232673e-02, 3.42383445e-03, 1.48805594e-02, 6.70232922e-02,
          9.73822374e-04, 2.75488896e-03, 0., 4.20978397e-01, 0., 0., 0.,
          0., 0., 0., 0., 0., 0., 0., 0., 0., 0., 0., 0., 0., 0., 0.,
          4.98753130e-01, 0., 0., 0., 0., 0., 0., 0., 4.98753130e-01,
          4.98753130e-01, 0., 0., 0., 0., 0., 0., 0., 4.98753130e-01, 0.,
          0., 0., 0., 0., 0., 0., 0., 0., 0., 0., 0., 0., 0., 0., 0., 0.,
          0., 4.89526808e-01, 1.62007175e-02, 0., 0., 0., 0., 0., 0.,
          4.89526808e-01, 4.89526808e-01, 1.86450154e-01, 3.92238162e-02,
          0., 0., 0., 0., 0., 4.89526808e-01, 0., 0., 0., 0., 0., 0., 0.,
          0., 0., 0., 0., 0., 0., 0., 0., 0., 0., 0., 5.46245515e-01,
          4.23036844e-01, 1.41105697e-01, 0., 0., 0., 0., 0.,
          5.46245515e-01, 3.20522070e-01, 9.37258154e-02, 3.25628519e-02,
          0., 0., 0., 0., 0., 2.93813646e-01, 0., 0., 0., 0., 0., 0., 0.,
          0., 0., 0., 0., 0., 0., 0., 0., 0., 0., 0., 2.75350106e-03, 0.,
          0., 0., 4.98749346e-01, 0., 0., 0., 2.75350106e-03, 0., 0., 0.,
          0., 4.98749346e-01, 0., 0., 0., 0., 0., 0., 0., 0.,
          4.98749346e-01, 0., 0., 0., 0., 0., 0., 0., 0., 4.98749346e-01,
          0., 0., 0., 0., 0., 0., 0., 0., 7.04615593e-01, 0., 0., 0., 0.,
          0., 0., 0., 0., 0., 0., 0., 0., 0., 0., 0., 0., 0.,
          7.04615593e-01, 0., 0., 0., 0., 0., 0., 0., 0., 0., 0., 0., 0.,
          0., 0., 0., 0., 0., 0., 0., 0., 0., 0., 0., 0., 0., 0., 0., 0.,
          0., 0., 0., 0., 0., 0., 0., 0., 0., 0., 0., 0., 0., 0., 0., 0.,
          0., 0., 0., 0., 0., 0., 0., 0., 0., 0., 0., 0., 0., 0., 0., 0.,
          0., 0., 0., 0., 0., 0., 0., 0., 0., 0., 0., 0., 0., 0., 0., 0.,
          0., 0., 0., 0., 0., 0., 0., 0., 0., 0., 0., 0., 0., 0., 0., 0.,
          0., 0., 0., 0., 0., 0., 7.04615593e-01, 0., 0., 0., 0., 0., 0.,
          0., 0., 0., 0., 0., 0., 0., 0., 0., 0., 0., 7.04615593e-01, 0.,
          0., 0., 0., 0., 0., 0., 0., 6.28090441e-01, 0., 0., 0., 0., 0.,
          0., 0., 0., 2.97503889e-01, 0., 0., 0., 0., 0., 0., 0., 0.,
          6.28090441e-01, 0., 0., 0., 0., 0., 0., 0., 0., 3.40918034e-01,
          0., 0., 0., 0., 0., 0., 0., 0., 0., 0., 0., 0., 0., 0., 0., 0.,
          0., 0., 0., 0., 0., 0., 0., 0., 0., 0., 0., 0., 0., 0., 0., 0.,
          0., 0., 0., 0., 0., 0., 0., 0., 0., 0., 0., 0., 0., 0., 0., 0.,
          0., 0., 0., 0., 0., 0., 0., 0., 0., 0., 0., 0., 0., 0., 0., 0.,
          0., 0., 0., 0., 0., 0., 0., 0., 0., 0., 0., 0., 0., 0., 0., 0.,
          0., 0., 0., 0., 0., 0., 0., 0., 0., 0., 0., 0., 0., 0., 0., 0.,
          0., 0., 0., 0., 0., 0., 0., 0., 0., 0., 0., 0., 0., 0., 0., 0.,
          0., 0., 0., 0., 0., 0., 0., 0., 0., 0., 0., 0., 0., 0., 0., 0.,
          0., 0., 0., 0., 0., 0., 0., 0., 0., 0., 0., 0., 0., 0., 0., 0.,
          0., 0., 0., 0., 0., 0., 0., 0., 0., 0., 0., 0., 0., 0., 0., 0.,
          0., 0., 0., 0., 0., 0., 0., 0., 0., 0., 0., 0., 0., 0., 0., 0.,
          0., 0., 0., 0., 0., 0., 0., 0., 0., 0., 0., 0., 0., 0., 0., 0.,
          0., 0., 0., 0., 0., 0., 0., 0., 0., 0., 0., 0., 0., 0., 0., 0.,
          0., 0., 0., 0., 0., 0., 0., 0., 0., 0., 0., 0., 0., 0., 0., 0.,
          0., 0., 0., 0., 0., 0., 0., 0., 0., 0., 0., 0., 0., 0., 0., 0.,
          0., 0., 0., 0., 0., 0., 0., 0., 0., 0., 0., 0., 0., 0., 0., 0.,
          0., 0., 0., 0., 0., 0., 0., 0., 0., 0., 0., 0., 0., 0., 0., 0.,
          0., 0., 0., 0., 0., 0., 0., 0., 0., 0., 0., 0., 0., 0., 0., 0.,
          0., 0., 0., 0., 0., 0., 0., 0., 0., 0., 0., 0., 0., 0., 0., 0.,
          0., 0., 0., 0., 0., 0., 0., 0., 0., 0., 0., 0., 0., 0., 0., 0.,
          0., 0., 0., 0., 0., 0., 0., 0., 0., 0., 0., 0., 4.98753130e-01,
          0., 0., 0., 0., 0., 0., 0., 0., 4.98753130e-01, 0., 0., 0., 0.,
          0., 0., 0., 0., 4.98753130e-01, 0., 0., 0., 0., 0., 0., 0., 0.,
          4.98753130e-01, 0., 0., 0., 0., 0., 0., 0., 0., 7.04615593e-01,
          0., 0., 0., 0., 0., 0., 0., 0., 0., 0., 0., 0., 0., 0., 0., 0.,
          0., 7.04615593e-01, 0., 0., 0., 0., 0., 0., 0., 0., 0., 0., 0.,
          0., 0., 0., 0., 0., 0., 0., 0., 0., 0., 0., 0., 0., 0., 0., 0.,
          0., 0., 0., 0., 0., 0., 0., 0., 0., 0., 0., 0., 0., 0., 0., 0.,
          0., 0., 0., 0., 0., 0. ]
      - [ 0., 0., 0., 0., 0., 0., 0., 0., 0., 0., 0., 0., 0., 0., 0., 0.,
          0., 0., 0., 0., 0., 0., 0., 0., 0., 0., 0., 0., 0., 0., 0., 0.,
          0., 0., 0., 0., 0., 0., 0., 0., 0., 0., 0., 0., 0., 0., 0., 0.,
          0., 0., 0., 0., 0., 0., 0., 0., 0., 0., 0., 0., 0., 0., 0., 0.,
          0., 0., 0., 0., 0., 0., 0., 0., 0., 0., 0., 0., 0., 0., 0., 0.,
          0., 0., 0., 0., 0., 0., 0., 0., 0., 0., 0., 0., 0., 0., 0., 0.,
          0., 0., 0., 0., 0., 0., 0., 0., 0., 0., 0., 0., 0., 0., 0., 0.,
          0., 0., 0., 0., 0., 0., 0., 0., 0., 7.04615593e-01, 0., 0., 0.,
          0., 0., 0., 0., 0., 0., 0., 0., 0., 0., 0., 0., 0., 0.,
          7.04615593e-01, 0., 0., 0., 0., 1.05761521e-01, 1.83573202e-03,
          3.65170203e-02, 2.55687367e-02, 3.42833638e-01, 5.75878955e-02,
          1.63763035e-02, 7.34336004e-02, 1.88850418e-01, 3.42833638e-01,
          1.19880168e-02, 6.66268691e-02, 5.55331446e-02, 3.42833638e-01,
          8.16697180e-02, 2.41386630e-02, 1.30472049e-01, 3.42833638e-01,
          4.67676632e-02, 4.36051469e-03, 1.79734342e-02, 2.62675378e-02,
          3.42833638e-01, 6.35411888e-02, 2.46749856e-02, 2.54999511e-02,
          6.21974394e-02, 2.23184153e-01, 2.24870536e-02, 4.61074486e-02,
          5.90112843e-02, 3.42833638e-01, 9.24197659e-02, 4.93929274e-02,
          6.91339076e-02, 3.42833638e-01, 3.58573854e-01, 1.49676008e-02,
          1.97746363e-02, 3.62331606e-02, 8.47854018e-02, 2.78338548e-02,
          7.46239023e-03, 3.24828923e-02, 3.58573854e-01, 3.58573854e-01,
          2.83380486e-02, 1.16693452e-02, 2.58339960e-02, 5.51420376e-02,
          2.79046018e-02, 1.04592666e-02, 4.75284979e-02, 3.58573854e-01,
          2.33055487e-01, 2.18763985e-02, 3.56359929e-02, 4.01771925e-02,
          2.02414379e-01, 4.94953766e-02, 1.65003054e-02, 2.64083780e-02,
          3.24658483e-01, 2.74996787e-01, 5.27732857e-02, 9.45235118e-02,
          4.35352549e-02, 1.68811932e-01, 8.87250751e-02, 2.72105355e-02,
          3.04157417e-02, 3.58573854e-01, 2.56073713e-01, 2.28661876e-02,
          1.32901678e-02, 1.88831352e-02, 1.33919660e-02, 8.50829482e-03,
          6.93156011e-03, 1.18948802e-01, 3.41436177e-01, 3.41436177e-01,
          4.25089188e-02, 3.36418338e-02, 3.39714698e-02, 1.66659448e-02,
          9.90329310e-03, 9.94490087e-03, 1.52706280e-01, 3.41436177e-01,
          1.56278580e-01, 4.54221964e-02, 7.14142919e-02, 1.29884899e-01,
          1.16260983e-01, 5.45689091e-02, 2.95848921e-02, 6.53957129e-02,
          3.34491432e-01, 3.41436177e-01, 8.98300037e-02, 1.18544549e-01,
          2.32551321e-01, 1.37625948e-01, 6.05802722e-02, 7.49321133e-02,
          1.35332912e-01, 3.41436177e-01, 2.77998626e-01, 1.09130576e-01,
          3.47424634e-02, 8.77291262e-02, 2.58016437e-01, 8.88011307e-02,
          3.81313413e-02, 8.03572163e-02, 2.77998626e-01, 1.35312125e-01,
          9.75839198e-02, 3.91356274e-02, 1.45998970e-01, 2.77998626e-01,
          1.28270417e-01, 3.60863991e-02, 3.31285521e-02, 5.70874587e-02,
          2.77998626e-01, 1.35129362e-01, 9.67647880e-02, 1.49871975e-01,
          1.64053932e-01, 1.35314882e-01, 1.49437979e-01, 1.74677193e-01,
          2.77998626e-01, 1.93624958e-01, 1.08416989e-01, 5.75486273e-02,
          1.09496482e-01, 2.77998626e-01, 2.50710756e-01, 1.23536862e-01,
          1.51392147e-01, 2.09316656e-01, 6.55064136e-02, 6.82249442e-02,
          8.77309889e-02, 1.90297052e-01, 3.28722924e-01, 1.37864798e-01,
          3.55962999e-02, 2.78565530e-02, 5.17908968e-02, 1.10467680e-01,
          4.90671135e-02, 3.70840207e-02, 7.64153004e-02, 8.03320110e-02,
          7.27833211e-02, 4.86577787e-02, 3.15128081e-02, 5.80723472e-02,
          3.28722924e-01, 1.84069350e-01, 1.13804266e-01, 1.06114693e-01,
          3.28722924e-01, 3.28722924e-01, 1.33749738e-01, 2.20861122e-01,
          3.28722924e-01, 3.28722924e-01, 2.00869411e-01, 6.69243708e-02,
          3.29849385e-02, 3.97281721e-02, 6.96729422e-02, 7.86696896e-02,
          1.20955974e-01, 1.83131769e-01, 1.47062466e-01, 9.22717005e-02,
          5.04963771e-02, 7.35985339e-02, 1.16969436e-01, 1.62781373e-01,
          9.42717716e-02, 4.84862849e-02, 6.49140254e-02, 6.85851425e-02,
          5.17334528e-02, 3.54652256e-02, 5.54816909e-02, 3.61759961e-01,
          1.84186026e-01, 8.28597024e-02, 5.98700941e-02, 7.13206306e-02,
          3.61759961e-01, 2.33770937e-01, 6.56648204e-02, 5.77386282e-02,
          2.11515859e-01, 2.86870092e-01, 1.80929378e-01, 1.22105494e-01,
          1.59571826e-01, 7.27601424e-02, 8.56199190e-02, 4.65476662e-02,
          7.43255392e-02, 3.61759961e-01, 3.61759961e-01, 1.59524977e-01,
          6.60654679e-02, 7.36384764e-02, 8.12956505e-03, 5.51742129e-03,
          6.11043954e-03, 1.85220707e-02, 4.95952100e-01, 5.40626757e-02,
          1.37174809e-02, 1.25259608e-02, 1.35155739e-02, 1.75740605e-03,
          3.33988457e-04, 5.54056955e-04, 7.53883412e-03, 4.95952100e-01,
          2.86505520e-02, 2.14644731e-03, 1.87362137e-03, 2.24048179e-03,
          5.47712343e-03, 6.28443900e-03, 7.32304342e-03, 4.35707346e-02,
          4.95952100e-01, 5.20108417e-02, 2.02232003e-02, 1.41850673e-02,
          9.56902467e-03, 1.79396675e-03, 5.63801557e-04, 4.69258201e-04,
          2.56866384e-02, 4.95952100e-01, 1.53141180e-02, 2.84141465e-03,
          3.57478275e-03, 1.89768989e-03, 0., 0., 0., 0., 7.04615593e-01,
          0., 0., 0., 0., 0., 0., 0., 0., 0., 0., 0., 0., 0., 0., 0., 0.,
          0., 7.04615593e-01, 0., 0., 0., 0., 0., 0., 0., 0., 0., 0., 0.,
          0., 0., 0., 0., 0., 0., 0., 0., 0., 0., 0., 0., 0., 0., 0., 0.,
          0., 0., 0., 0., 0., 0., 0., 0., 0., 0., 0., 0., 0., 0., 0., 0.,
          0., 0., 0., 0., 0., 0., 0., 0., 0., 0., 0., 0., 0., 0., 0., 0.,
          0., 0., 0., 0., 0., 0., 0., 0., 0., 0., 0., 0., 0., 0., 0., 0.,
          0., 0., 0., 0., 0., 0., 0., 0., 0., 0., 0., 0., 0., 0., 0., 0.,
          0., 0., 0., 0., 0., 0., 0., 0., 0., 0., 0., 0., 0., 0., 0., 0.,
          0., 0., 0., 0., 0., 0., 0., 0., 0., 0., 0., 0., 0., 0., 0., 0.,
          0., 0., 0., 0., 0., 0., 0., 0., 0., 0., 0., 0., 0., 0., 0., 0.,
          0., 0., 0., 0., 0., 0., 0., 0., 0., 0., 0., 0., 0., 0., 0., 0.,
          0., 0., 0., 0., 0., 0., 0., 0., 0., 0., 0., 0., 0., 0., 0., 0.,
          0., 0., 0., 0., 0., 0., 0., 0., 0., 0., 0., 0., 0., 0., 0., 0.,
          0., 0., 0., 0., 0., 0., 0., 0., 0., 0., 0., 0., 0., 0., 0., 0.,
          0., 0., 0., 0., 0., 0., 0., 0., 0., 0., 0., 0., 0., 0., 0., 0.,
          0., 0., 0., 0., 0., 0., 0., 0., 0., 0., 0., 0., 0., 0., 0., 0.,
          0., 0., 0., 0., 0., 0., 0., 8.71306717e-01, 0., 0., 0., 0., 0.,
          0., 0., 0., 0., 0., 0., 0., 0., 0., 0., 0., 0., 4.81799096e-01,
          0., 0., 0., 0., 5.22678792e-02, 9.79179889e-03, 1.45087307e-02,
          7.36895129e-02, 3.65762919e-01, 4.98655848e-02, 8.62400010e-02,
          9.61047038e-02, 7.37013221e-02, 2.41259068e-01, 4.46828753e-02,
          3.74355540e-02, 2.37916484e-01, 3.65762919e-01, 9.40983668e-02,
